~o
<STREAMINFO> 1 39
<VECSIZE> 39<NULLD><MFCC_D_A_Z_0><DIAGC>
~h "band"
<BEGINHMM>
<NUMSTATES> 8
<STATE> 2
<NUMMIXES> 32
<MIXTURE> 1 8.097899e-02
<MEAN> 39
 1.140305e+00 2.447623e+00 3.926117e+00 3.630129e+00 3.277449e+00 5.644346e+00 3.445878e-01 3.076212e+00 7.433463e-01 2.151031e+00 1.404447e+00 1.974221e+00 -5.685235e+01 0.000000e+00 0.000000e+00 0.000000e+00 0.000000e+00 0.000000e+00 0.000000e+00 0.000000e+00 0.000000e+00 0.000000e+00 0.000000e+00 0.000000e+00 0.000000e+00 0.000000e+00 -1.053124e-02 8.833174e-03 2.003845e-03 7.597356e-04 -6.455866e-03 -8.271379e-03 -7.462789e-03 -3.139086e-03 -8.430077e-03 -9.326263e-05 -5.879764e-03 -4.777820e-03 2.181783e-01
<VARIANCE> 39
 6.665490e+00 1.975597e+01 1.304298e+01 1.400973e+01 1.046667e+01 2.642223e+01 8.469104e+00 9.736227e+00 1.031046e+01 7.817867e+00 7.004178e+00 9.368348e+00 5.744521e+00 1.285030e-02 3.524570e-02 3.338051e-02 3.042886e-02 3.033499e-02 3.520322e-02 3.440167e-02 3.226241e-02 2.978184e-02 2.749624e-02 2.482363e-02 2.236510e-02 1.306386e-01 2.042434e-03 4.673675e-03 5.023569e-03 5.115177e-03 5.266735e-03 6.131088e-03 5.985104e-03 5.881900e-03 5.528427e-03 5.149869e-03 4.525570e-03 4.156021e-03 3.652913e-01
<GCONST> -7.833230e+00
<MIXTURE> 2 3.483365e-02
<MEAN> 39
 -1.716002e+00 8.784721e+00 4.695887e+00 2.660793e+00 5.868773e+00 9.035274e-01 -2.089949e+00 -3.367740e-01 -1.399342e-01 5.564080e-01 -4.044387e+00 -2.223281e+00 -1.279005e+01 2.897382e+00 3.534452e+00 2.524172e+00 1.550405e+00 1.494759e+00 -4.451066e-01 1.698097e-01 -3.915274e-01 -4.981023e-01 -3.358845e-01 1.559737e-01 -4.217597e-01 3.057281e+00 -2.435083e-01 -8.021950e-01 -5.377361e-01 -1.206361e-01 -2.827566e-01 3.979008e-01 3.401848e-01 2.320038e-01 7.456953e-03 -9.187307e-03 5.292898e-01 4.121033e-01 -2.761586e-02
<VARIANCE> 39
 1.863285e+01 2.108899e+01 1.612398e+01 1.641102e+01 2.408557e+01 2.275749e+01 2.833282e+01 1.370427e+01 2.515256e+01 1.032828e+01 3.563865e+01 1.876083e+01 3.730581e+01 9.223544e-01 1.810974e+00 1.314870e+00 3.736826e+00 4.252273e+00 2.424474e+00 5.130435e+00 3.745240e+00 3.916840e+00 2.311934e+00 2.283441e+00 1.778121e+00 2.074464e+00 1.926626e-01 4.100638e-01 3.597880e-01 6.268647e-01 5.156624e-01 2.447837e-01 6.772530e-01 4.994561e-01 3.422513e-01 2.792562e-01 4.237982e-01 1.620382e-01 4.629200e-01
<GCONST> 1.099320e+02
<MIXTURE> 3 2.271635e-02
<MEAN> 39
 9.181351e-01 4.322803e+00 2.390435e+00 4.355376e+00 1.769795e+00 7.031158e+00 -1.137583e+00 1.635463e+00 8.731752e-01 2.483773e+00 1.565502e+00 2.267253e+00 -3.705966e+01 7.158846e-01 2.247782e+00 1.107382e+00 8.973256e-01 7.198361e-01 -9.617169e-01 -1.019622e+00 -7.745827e-01 -7.930316e-01 -3.850361e-01 -5.670350e-01 -6.601180e-01 1.561416e+01 2.549928e-01 4.671821e-02 -1.735038e-01 -5.121293e-02 2.555041e-01 -2.358101e-01 7.576531e-02 6.267557e-02 2.716530e-01 2.466466e-02 9.556696e-02 6.788041e-02 -5.317852e-01
<VARIANCE> 39
 4.890665e+00 8.486791e+00 1.369672e+01 1.514667e+01 1.322987e+01 1.044076e+01 1.485064e+01 9.110939e+00 2.161633e+01 1.681239e+00 1.071435e+01 2.738102e+00 6.937068e+02 1.841329e-01 9.906555e-01 1.044638e+00 5.623118e-01 1.157118e+00 1.213490e+00 7.907885e-01 1.151330e+00 1.924640e+00 1.000799e+00 1.002221e+00 1.361637e+00 1.255722e+00 5.082533e-02 1.370262e-01 7.252323e-02 2.936654e-01 8.030004e-02 2.455684e-01 3.763027e-01 1.723213e-01 2.877592e-01 1.106246e-01 1.199635e-01 9.988076e-02 6.607993e+00
<GCONST> 8.183249e+01
<MIXTURE> 4 3.740194e-02
<MEAN> 39
 -1.206043e+00 1.487506e+00 3.745751e+00 3.294670e+00 3.605979e+00 7.128838e+00 2.368285e+00 2.650094e+00 1.683590e+00 2.041862e+00 2.385558e+00 1.903242e+00 -5.968917e+01 9.605824e-02 1.178132e+00 4.570309e-01 1.820012e-01 1.105059e-03 -5.324385e-01 -8.324064e-01 -4.000027e-01 -5.591413e-01 -3.909623e-01 -4.728172e-01 -4.417388e-01 1.308610e+01 3.022860e-01 6.075960e-01 1.881357e-01 2.677377e-02 1.018270e-01 -2.206336e-01 -3.076065e-01 -2.005226e-01 -2.216441e-01 -5.943989e-02 -1.539229e-01 -1.513124e-01 3.330301e+00
<VARIANCE> 39
 5.840403e+00 1.347956e+01 9.256714e+00 5.549295e+00 1.561376e+01 7.151261e+00 7.605596e+00 8.930710e+00 4.244086e+00 5.750547e+00 3.524236e+00 3.209491e+00 8.160063e+00 2.544405e-01 3.784381e-01 3.511218e-01 5.252876e-01 5.851069e-01 5.151876e-01 4.087248e-01 4.645722e-01 2.007993e-01 4.844641e-01 3.317606e-01 3.332419e-01 1.286832e+01 4.094823e-02 8.821801e-02 7.689497e-02 7.923709e-02 1.564886e-01 1.059671e-01 1.181955e-01 6.765541e-02 9.461820e-02 9.898020e-02 4.235537e-02 8.049973e-02 2.616471e+00
<GCONST> 5.872468e+01
<MIXTURE> 5 3.346326e-02
<MEAN> 39
 1.720453e+00 1.042519e+01 5.544618e+00 3.871675e+00 6.218193e+00 -9.297580e-01 -3.791991e+00 -6.841954e-01 1.335550e+00 4.240906e+00 1.820635e+00 -4.160704e-01 -8.538296e+00 6.320916e-01 -6.220567e-01 -4.518282e-01 9.927976e-01 9.653493e-01 1.396769e+00 -3.198319e-01 1.091571e+00 3.177795e-01 1.001420e+00 -1.087182e-01 1.057250e-01 1.412996e+00 -1.946017e-01 -1.316155e-01 -1.325341e-01 -1.547866e-01 -2.915024e-02 -2.739030e-02 3.460774e-01 -2.453053e-01 -2.680031e-01 -2.822756e-01 -1.018275e-01 2.725796e-01 -2.012509e-01
<VARIANCE> 39
 6.078727e+00 6.706213e+00 2.465576e+01 2.147412e+01 3.360610e+01 3.794638e+01 2.431127e+01 2.684908e+01 1.787886e+01 1.448219e+01 8.327597e+00 2.091523e+01 2.639403e+01 3.424765e-01 9.496121e-01 5.146155e-01 1.041263e+00 3.072072e+00 3.056670e+00 3.485302e+00 1.859227e+00 2.386016e+00 1.631212e+00 1.588967e+00 2.551224e+00 1.227501e+00 3.095985e-02 9.208383e-02 7.665867e-02 4.605526e-01 6.988682e-01 6.447977e-01 3.914868e-01 2.507376e-01 5.667652e-01 2.771487e-01 2.334894e-01 3.859642e-01 2.367226e-01
<GCONST> 9.658292e+01
<MIXTURE> 6 2.585348e-02
<MEAN> 39
 5.688178e+00 1.644406e+00 -8.284395e+00 -2.696693e+00 3.560982e+00 4.439039e+00 -4.278975e+00 -3.579543e+00 1.083440e+00 5.466993e+00 8.333169e-01 -7.410678e-01 2.549446e+00 7.798801e-01 -1.551528e-01 -1.254831e+00 5.703058e-02 1.654030e+00 -8.567019e-01 -2.782204e-01 2.633862e-01 9.849443e-01 1.377559e+00 2.372457e-01 2.469902e-01 3.402226e+00 -5.663677e-01 -2.737382e-01 4.165803e-01 4.538049e-01 -3.222809e-01 -4.216901e-02 5.903029e-01 2.820764e-01 2.026655e-01 -4.749100e-01 9.193888e-02 2.096340e-01 -2.288044e+00
<VARIANCE> 39
 1.838151e+01 9.510981e+00 2.547670e+01 1.357992e+01 1.391346e+01 2.412515e+01 2.265025e+01 3.291322e+01 2.027280e+01 3.392412e+01 2.083294e+01 1.880648e+01 4.600367e+01 4.713241e+00 1.330678e+00 2.805163e+00 1.958059e+00 3.294497e+00 1.594806e+00 1.611170e+00 2.348906e+00 8.358482e-01 2.024710e+00 2.404244e+00 2.024600e+00 2.304534e+01 2.989563e-01 3.967329e-02 5.188589e-01 3.702646e-01 4.218221e-01 3.253638e-01 2.306602e-01 5.054476e-01 3.318388e-01 3.800308e-01 5.357345e-01 3.514212e-01 2.936747e+00
<GCONST> 1.103435e+02
<MIXTURE> 7 2.778477e-02
<MEAN> 39
 1.984962e+00 7.825903e+00 5.800083e+00 2.207936e+00 3.054482e+00 2.375716e+00 5.145291e-01 -1.744039e-01 -7.369169e-01 1.512699e+00 3.564088e+00 1.547618e+00 -1.026899e+01 2.301399e-01 2.622861e-01 -1.131642e-01 1.182615e+00 1.130315e+00 -1.538047e-01 -4.576623e-01 -2.175329e-01 1.643554e-01 -2.263106e-01 -3.430203e-01 -1.917208e-01 -2.021141e-01 5.525261e-02 -1.202554e-01 -3.512038e-02 -1.042600e-01 -3.085035e-02 1.073939e-01 6.644922e-02 7.460427e-02 1.057272e-01 3.863672e-02 -7.133272e-02 -7.868154e-02 1.923174e-02
<VARIANCE> 39
 7.577941e+00 1.314102e+01 2.579823e+01 2.289642e+01 1.836402e+01 3.609015e+01 3.444020e+01 6.503095e+01 1.855661e+01 6.740138e+00 1.944878e+01 1.659835e+01 2.697379e+01 1.952769e-01 8.008536e-01 1.479023e+00 1.578568e+00 6.584618e-01 7.614897e-01 9.945846e-01 9.877537e-01 1.252874e+00 1.777625e+00 1.089663e+00 1.486989e+00 6.702289e-01 2.226951e-02 5.201424e-02 1.591258e-01 1.711667e-01 1.329382e-01 9.800777e-02 8.553016e-02 1.564583e-01 8.737297e-02 1.947819e-01 1.057533e-01 2.455763e-01 3.635015e-02
<GCONST> 7.988129e+01
<MIXTURE> 8 2.780735e-02
<MEAN> 39
 -1.074253e+01 5.049268e-01 -4.100561e-02 7.117243e-01 6.185609e+00 1.277055e+00 -3.537392e+00 -2.441256e+00 1.760374e+00 2.254462e-01 4.961257e+00 3.572820e+00 -1.968662e+01 2.104479e+00 2.200408e+00 8.211067e-01 8.240420e-01 -6.750094e-02 1.638368e-01 7.761903e-01 6.244094e-01 3.653009e-01 -2.634645e-01 -2.329215e-01 6.028117e-01 2.084644e+00 1.007770e+00 5.844123e-01 3.170782e-01 2.810543e-01 -4.114795e-01 -3.106624e-02 -2.399743e-02 3.867483e-01 -3.224056e-02 3.069243e-01 -5.345398e-01 -4.931998e-01 1.000694e+00
<VARIANCE> 39
 2.261229e+01 1.834258e+01 8.793605e+00 1.920236e+01 3.456106e+01 1.179263e+01 9.489089e+00 3.622349e+01 1.845494e+01 3.454688e+01 3.183173e+01 2.538711e+01 8.235156e+01 3.146056e+00 1.138588e+00 2.585223e+00 2.727373e+00 2.750518e+00 1.167949e+00 2.784073e+00 4.913521e+00 2.464967e+00 2.682132e+00 4.764322e+00 2.319587e+00 2.434398e+00 3.233499e-01 2.618884e-01 2.446074e-01 3.610007e-01 3.645033e-01 2.876168e-01 3.297717e-01 9.002635e-01 5.701631e-01 6.888764e-01 7.373788e-01 4.850580e-01 1.959072e-01
<GCONST> 1.124821e+02
<MIXTURE> 9 2.349980e-02
<MEAN> 39
 2.923876e+00 9.696633e+00 5.445516e+00 2.925096e+00 1.564666e+00 2.032519e+00 -1.587910e+00 5.027255e-01 -1.095155e+00 3.391323e+00 -7.688859e-01 -3.936170e-01 -8.694403e+00 1.242440e+00 1.509719e+00 6.260097e-01 4.632844e-01 -2.939377e-03 -1.368890e+00 -1.050806e+00 3.220719e-01 7.014872e-01 5.761520e-01 2.434163e-01 5.672817e-01 9.439525e+00 -9.126199e-02 -8.562608e-01 -5.228229e-01 7.732058e-02 8.213936e-02 1.292362e-01 7.186201e-02 6.896806e-02 4.413333e-01 -2.475255e-01 1.427720e-01 2.972147e-01 -2.371297e+00
<VARIANCE> 39
 8.629162e+00 8.997788e+00 2.273076e+01 1.813412e+01 1.837763e+01 1.991686e+01 1.401167e+01 1.458713e+01 1.147359e+01 9.330730e+00 8.167409e+00 8.641271e+00 3.252964e+01 4.016395e-01 1.241848e+00 1.923209e+00 1.422657e+00 1.673870e+00 1.034334e+00 1.966699e+00 5.115187e-01 2.289633e+00 1.433945e+00 3.089052e-01 1.602863e+00 5.045911e+01 6.835476e-02 1.859410e-01 1.148891e-01 4.024786e-01 2.228966e-01 4.675667e-01 1.467655e-01 2.247565e-01 3.026256e-01 3.090444e-01 1.287097e-01 1.037352e-01 3.309875e+00
<GCONST> 9.235772e+01
<MIXTURE> 10 3.759864e-02
<MEAN> 39
 2.583340e+00 1.256756e+01 6.478227e+00 7.812981e+00 5.459996e+00 5.278739e+00 -1.743497e+00 -2.026773e+00 -1.187307e+00 -3.810619e+00 -2.226198e-01 -1.275283e+00 -1.095564e+01 2.438698e-02 -1.447933e-01 4.478638e-01 1.622243e-01 6.650702e-01 3.545207e-01 -7.057119e-02 1.501398e-01 5.683773e-01 2.623091e-01 7.003257e-01 8.782206e-02 6.510125e-01 -2.042488e-01 -1.185898e+00 -8.692002e-01 -8.361717e-01 -5.258743e-01 1.718577e-01 -2.173573e-01 3.929301e-01 4.446555e-01 7.918004e-01 9.707069e-02 1.817089e-01 -2.520792e-01
<VARIANCE> 39
 5.380764e+00 1.164950e+01 1.854747e+01 2.724297e+01 2.151709e+01 3.638921e+01 4.183554e+01 1.175948e+01 1.366019e+01 1.612387e+01 1.974506e+01 9.353910e+00 1.698582e+01 1.340865e+00 1.258882e+00 1.782772e+00 2.340842e+00 1.630546e+00 1.560832e+00 2.363242e+00 1.385775e+00 1.589598e+00 1.599985e+00 9.233221e-01 1.044795e+00 2.255988e+00 2.600822e-01 3.387338e-01 4.308054e-01 8.813670e-01 5.902468e-01 3.925408e-01 7.886732e-01 3.686537e-01 1.625369e-01 2.477982e-01 1.758652e-01 2.034701e-01 1.808460e+00
<GCONST> 1.020865e+02
<MIXTURE> 11 3.221015e-02
<MEAN> 39
 8.142939e-01 3.119101e+00 3.955643e+00 3.124157e+00 4.941237e+00 6.355927e+00 7.270768e-01 3.843568e+00 1.809219e+00 3.638149e+00 2.478765e+00 3.225830e+00 -5.685979e+01 0.000000e+00 0.000000e+00 0.000000e+00 0.000000e+00 0.000000e+00 0.000000e+00 0.000000e+00 0.000000e+00 0.000000e+00 0.000000e+00 0.000000e+00 0.000000e+00 0.000000e+00 -9.971697e-02 4.819002e-02 -6.648458e-02 -1.374611e-02 -8.270577e-02 -1.724968e-01 -1.350821e-01 -8.735117e-02 -9.559984e-02 -1.113605e-01 -5.989811e-02 -3.578885e-02 2.848425e+00
<VARIANCE> 39
 6.916533e+00 1.594769e+01 6.060272e+00 1.380801e+01 1.587882e+01 1.949666e+01 2.232153e+00 1.013413e+01 3.697055e+00 5.072385e+00 3.849864e+00 5.343327e+00 1.131310e+01 1.285030e-02 3.524570e-02 3.338051e-02 3.042886e-02 3.033499e-02 3.520322e-02 3.440167e-02 3.226241e-02 2.978184e-02 2.749624e-02 2.482363e-02 2.236510e-02 1.306386e-01 1.241179e-02 7.995783e-02 5.225501e-02 3.872944e-02 2.513063e-02 4.012913e-02 2.917561e-02 4.088720e-02 1.295833e-02 1.668083e-02 1.186201e-02 1.283644e-02 1.417315e+00
<GCONST> 9.536688e+00
<MIXTURE> 12 3.907566e-02
<MEAN> 39
 -7.396068e+00 -2.129755e+00 -3.895797e-01 3.150292e+00 -1.578809e+00 5.184041e+00 -2.445082e+00 2.238985e-01 -3.436031e-01 -2.405389e+00 -1.159031e-01 1.519946e-01 -1.694182e+01 -1.101745e-01 -1.950451e-01 -4.628880e-02 2.453416e-01 3.098312e-01 -8.798748e-02 2.739150e-01 -9.802236e-01 -5.644048e-01 -3.471828e-01 1.108219e-01 1.148161e-01 -6.628899e-02 2.289397e-01 2.537138e-01 9.526304e-03 -1.137485e-01 1.700057e-01 1.968708e-01 2.572598e-01 3.409036e-01 2.841246e-01 2.064926e-01 1.739310e-01 3.887879e-02 1.979468e-01
<VARIANCE> 39
 1.024649e+01 1.508494e+01 2.032885e+01 1.882672e+01 2.445140e+01 1.926075e+01 4.353923e+00 2.421999e+01 2.383119e+01 1.437985e+01 1.540700e+01 2.258885e+01 3.974323e+01 3.116050e-01 5.798177e-01 6.783950e-01 1.511711e+00 1.632522e+00 2.557515e+00 1.107803e+00 2.084653e+00 2.455350e+00 8.218156e-01 1.406772e+00 1.588036e+00 1.306386e-01 1.213628e-01 1.953360e-01 3.457357e-01 3.533078e-01 2.461509e-01 3.293277e-01 1.451825e-01 2.735569e-01 2.916464e-01 1.282120e-01 2.098001e-01 2.126597e-01 8.981422e-02
<GCONST> 8.851156e+01
<MIXTURE> 13 2.764015e-02
<MEAN> 39
 -9.039186e+00 -2.960280e+00 -9.557566e-01 4.386701e+00 -1.579589e+00 6.708811e+00 2.207117e+00 -1.786380e+00 5.390104e-01 -1.906678e+00 3.285394e+00 5.316681e+00 -1.995970e+01 6.657021e-01 -2.591472e-02 -4.543102e-01 -8.235163e-01 3.158808e-01 -8.103478e-02 4.411936e-01 3.213159e-01 4.614557e-02 6.405379e-01 5.331218e-02 -1.077412e-01 1.552971e+00 8.391895e-01 6.065328e-01 -8.299081e-02 -4.939552e-01 -9.399641e-02 -4.843957e-01 -4.900669e-01 4.223749e-02 8.775982e-02 3.795924e-01 -4.014077e-01 -4.028389e-01 1.153316e+00
<VARIANCE> 39
 7.190920e+00 3.145251e+01 8.566116e+00 1.268923e+01 1.233790e+01 3.487864e+01 1.406002e+01 2.408178e+01 2.909611e+01 2.664955e+01 1.267144e+01 3.094959e+01 5.591693e+01 1.347121e+00 2.041045e+00 2.649761e+00 2.571238e+00 1.684164e+00 1.693297e+00 1.379565e+00 9.776903e-01 1.262751e+00 1.697818e+00 1.247656e+00 5.919793e-01 5.197413e+00 2.475693e-01 6.751990e-01 2.336098e-01 2.947435e-01 1.806765e-01 7.419984e-01 3.284485e-01 2.079675e-01 4.210646e-01 2.870929e-01 3.726117e-01 2.510917e-01 1.351832e+00
<GCONST> 1.033722e+02
<MIXTURE> 14 2.765293e-02
<MEAN> 39
 4.767558e-01 3.689726e+00 4.970995e+00 4.008167e+00 4.620629e+00 7.507487e+00 8.883439e-01 2.848187e+00 1.060472e+00 2.250394e+00 2.406951e+00 2.920897e+00 -5.724587e+01 -9.078894e-02 -4.215167e-01 -1.153120e+00 -8.194139e-01 -4.318139e-01 -1.478224e+00 -7.397087e-01 -6.650580e-01 -5.033785e-02 -4.498146e-01 -6.632911e-01 -5.641345e-01 1.358246e+01 3.337147e-01 -2.442251e-01 -8.204940e-01 -2.554044e-01 -5.298926e-02 -7.414438e-01 -2.604387e-01 -1.904934e-01 1.200139e-01 5.873068e-02 -3.136474e-01 -2.962276e-01 4.304106e+00
<VARIANCE> 39
 1.116422e+01 1.417739e+01 9.438012e+00 1.501925e+01 2.610201e+01 1.198318e+01 4.284510e+00 1.020385e+01 7.431208e+00 9.592757e+00 4.734822e+00 4.443438e+00 4.545514e+01 3.943139e-01 2.130710e+00 1.280278e+00 2.265414e+00 6.019689e-01 2.972535e+00 9.603542e-01 1.975516e+00 2.119149e+00 1.064397e+00 7.034880e-01 3.650155e-01 1.401003e+01 8.253945e-02 3.797379e-01 2.071080e-01 1.643544e-01 1.186434e-01 1.825045e-01 1.836481e-01 2.621841e-01 2.161319e-01 2.888332e-01 8.930576e-02 5.954936e-02 1.449728e+00
<GCONST> 8.520724e+01
<MIXTURE> 15 3.426261e-02
<MEAN> 39
 3.939290e+00 7.799968e+00 1.932679e+00 8.534597e+00 1.072203e+01 2.777070e+00 -4.632967e+00 -6.017906e+00 1.125897e-02 3.121765e+00 -3.173085e-01 -1.470323e+00 -8.515756e+00 2.702587e-01 -4.865011e-01 -8.147334e-01 5.974137e-01 4.789428e-01 3.027945e-01 -1.450501e-01 1.272561e-01 -2.233770e-02 -1.559489e-01 -8.239932e-02 -2.398513e-01 2.857078e-01 -4.217101e-02 -4.823051e-01 -4.110357e-01 -8.054094e-01 -9.688954e-01 -4.576955e-01 3.105000e-01 6.431379e-01 1.122691e-01 -2.662381e-01 4.246660e-02 -1.186607e-02 2.224653e-01
<VARIANCE> 39
 1.752876e+00 5.751540e+00 8.880150e+00 1.073214e+01 2.933117e+01 1.969761e+01 3.134652e+01 6.951902e+01 1.506713e+01 1.754275e+01 1.444187e+01 1.831131e+01 1.267728e+01 1.961395e-01 4.876972e-01 7.018855e-01 1.081370e+00 9.797485e-01 2.343245e+00 1.008249e+00 2.563243e+00 2.058698e+00 2.466854e+00 1.083877e+00 1.334882e+00 5.932567e-01 7.129190e-02 2.770336e-01 1.163004e-01 3.882043e-01 3.786242e-01 5.589455e-01 5.792621e-01 5.082859e-01 1.915760e-01 5.334795e-01 3.969259e-01 2.212186e-01 4.687849e-01
<GCONST> 9.164651e+01
<MIXTURE> 16 3.250601e-02
<MEAN> 39
 3.614757e+00 1.023318e+01 6.366032e+00 6.393357e+00 6.836277e+00 -1.988125e+00 -5.972979e+00 -2.891638e+00 -4.115580e-01 1.302598e-01 -2.196880e+00 -2.870595e+00 -6.000234e+00 8.503103e-01 7.121523e-01 -1.337653e+00 -4.287854e-01 -2.963448e-01 -1.939006e+00 -1.302644e+00 -1.188191e+00 1.149864e+00 -2.200808e-01 -2.308992e-01 -7.311619e-01 5.882395e+00 -1.133138e-01 -1.270593e+00 -1.272374e+00 -7.590315e-01 -6.536298e-01 7.043353e-01 4.835718e-01 4.682438e-01 1.925418e-01 2.354979e-01 2.488285e-01 4.795163e-01 -2.585354e+00
<VARIANCE> 39
 7.270348e+00 2.927625e+01 2.346000e+01 1.019856e+01 1.889132e+01 3.534497e+01 3.424473e+01 2.562065e+01 1.823550e+01 2.579874e+01 7.973717e+00 1.223141e+01 3.494124e+01 7.241569e-01 2.006743e+00 4.066254e+00 4.677130e+00 1.945811e+00 3.898283e+00 2.543039e+00 2.897413e+00 2.751785e+00 2.939442e+00 2.701003e+00 1.849736e+00 3.573384e+01 1.518713e-01 5.139225e-01 5.301877e-01 1.856774e-01 4.172759e-01 1.025714e+00 5.211930e-01 4.478474e-01 3.521184e-01 4.712495e-01 2.261499e-01 2.382374e-01 1.769952e+00
<GCONST> 1.133830e+02
<MIXTURE> 17 4.062138e-02
<MEAN> 39
 2.096431e+00 -3.961137e+00 -6.493864e+00 4.245057e-02 1.257652e+00 3.239267e-01 -3.111116e+00 2.590475e+00 -6.734318e-01 -1.509990e-01 -2.907875e+00 2.885008e-02 3.264442e+00 6.527505e-01 -2.915596e+00 -4.016322e+00 -3.564930e-01 -2.679401e-02 -1.497423e+00 3.415037e-01 2.269119e-01 -6.833557e-01 -8.071572e-01 -5.045113e-01 -1.363445e-01 1.248020e+01 -2.176477e-01 1.391642e-01 5.462043e-01 3.963765e-01 3.118095e-01 4.822084e-01 7.463927e-01 1.170457e-01 -1.633328e-01 1.203277e-01 2.862244e-01 8.097634e-02 -3.610214e+00
<VARIANCE> 39
 2.172412e+01 1.981057e+01 3.113109e+01 1.276924e+01 1.929415e+01 4.612626e+01 3.040392e+01 2.613935e+01 2.277036e+01 2.040129e+01 1.970829e+01 1.799279e+01 6.154061e+01 2.814584e+00 2.448726e+00 3.797975e+00 1.879283e+00 1.752388e+00 2.701023e+00 2.165366e+00 2.976660e+00 4.549900e+00 1.138545e+00 3.431363e+00 9.302627e-01 3.318515e+01 2.358493e-01 3.017123e-01 8.243175e-01 1.031566e-01 2.987632e-01 3.585313e-01 6.224626e-01 6.763480e-01 4.977763e-01 4.070732e-01 2.096851e-01 2.821904e-01 2.715357e+00
<GCONST> 1.153181e+02
<MIXTURE> 18 2.684478e-02
<MEAN> 39
 3.506266e+00 8.637512e+00 4.173534e+00 5.264993e+00 -1.567630e+00 -3.162763e+00 1.306428e+00 -1.215569e+00 -2.359347e+00 -3.725302e+00 -2.997727e+00 8.407137e-01 -6.324535e+00 3.009194e-02 -4.230999e-01 -4.660578e-01 2.827706e-01 8.391026e-01 -1.571986e-02 -5.377026e-01 -9.697631e-02 8.687814e-01 9.963139e-01 1.845658e-01 -5.323251e-01 -5.034036e-01 -2.477932e-01 -1.266015e-01 -1.088647e-01 -1.322917e-01 3.858358e-01 4.540455e-01 -4.053804e-02 -2.443722e-01 -2.428493e-01 1.502658e-01 7.649671e-02 -3.855582e-02 5.598646e-02
<VARIANCE> 39
 5.714119e+00 1.499039e+01 4.802107e+00 1.686044e+01 2.131931e+01 9.659636e+00 1.302473e+01 3.439775e+01 1.489873e+01 1.339616e+01 1.837925e+01 1.055339e+01 1.243160e+01 3.748979e-01 2.323050e-01 2.536145e-01 1.308234e+00 1.695351e+00 1.328506e+00 2.828077e+00 1.208201e+00 1.790886e+00 2.480552e+00 1.161345e+00 8.409981e-01 5.078442e-01 1.256846e-01 1.132492e-01 2.657654e-01 2.292901e-01 1.711654e-01 2.223484e-01 4.516779e-01 3.282152e-01 1.357770e-01 5.389261e-01 1.185623e-01 2.315348e-01 1.326725e-01
<GCONST> 8.386710e+01
<MIXTURE> 19 2.340472e-02
<MEAN> 39
 1.625521e+00 2.062752e+00 5.471308e+00 2.590974e+00 2.817022e+00 3.936923e+00 -8.127291e-01 1.104143e+00 -3.107903e+00 -6.058520e-01 -1.028025e+00 6.995841e-01 -5.848018e+01 0.000000e+00 0.000000e+00 0.000000e+00 0.000000e+00 0.000000e+00 0.000000e+00 0.000000e+00 0.000000e+00 0.000000e+00 0.000000e+00 0.000000e+00 0.000000e+00 0.000000e+00 -6.376328e-02 -5.743347e-02 -3.137792e-01 2.643734e-03 -6.440826e-02 -3.429381e-01 -5.720058e-02 -9.955436e-02 7.121137e-02 -9.439596e-03 -5.243038e-02 -8.287717e-02 3.368844e+00
<VARIANCE> 39
 1.085354e+01 1.968280e+01 9.807776e+00 6.309485e+00 5.350096e+00 2.077066e+01 1.335132e+01 5.169425e+00 2.192745e+00 8.219125e+00 7.882748e+00 9.920007e+00 1.312399e+01 1.285030e-02 3.524570e-02 3.338051e-02 3.042886e-02 3.033499e-02 3.520322e-02 3.440167e-02 3.226241e-02 2.978184e-02 2.749624e-02 2.482363e-02 2.236510e-02 1.306386e-01 6.746555e-02 2.154555e-01 1.429651e-01 6.961561e-02 2.900246e-02 1.768909e-01 8.175307e-02 7.140079e-02 1.112494e-01 9.762632e-02 2.607150e-02 3.942883e-02 1.753563e+00
<GCONST> 2.496211e+01
<MIXTURE> 20 3.683235e-02
<MEAN> 39
 -6.488030e+00 -2.737518e+00 -3.994219e+00 -2.037000e+00 -2.073325e+00 3.181160e+00 -7.849994e-01 1.027882e-01 1.001436e+00 1.094645e+00 -3.588345e-01 1.629957e+00 -1.926351e+01 1.662525e+00 2.231766e+00 6.836544e-01 4.566894e-01 9.946622e-01 -5.802957e-01 -6.436673e-01 -6.282420e-01 -3.677252e-02 9.001831e-01 -3.993805e-01 -5.531811e-01 1.166332e+00 6.086761e-01 9.297765e-01 8.675072e-01 8.143251e-01 8.284236e-01 -2.437229e-01 1.597324e-01 1.400205e-01 -3.080834e-01 -3.958728e-01 -1.303788e-01 -1.784500e-01 7.927648e-01
<VARIANCE> 39
 1.132422e+01 1.535434e+01 1.613386e+01 3.855025e+01 2.955935e+01 5.541611e+01 4.092286e+01 4.784517e+01 4.148764e+01 2.072380e+01 1.235890e+01 1.285319e+01 2.701122e+01 1.566872e+00 2.824273e+00 2.943906e+00 3.194669e+00 2.129399e+00 3.244354e+00 2.594729e+00 2.464516e+00 2.254328e+00 1.013605e+00 2.413432e+00 2.011424e+00 3.120837e+00 7.106832e-02 2.338484e-01 1.550376e-01 4.862383e-01 2.739879e-01 5.401821e-01 8.798542e-01 9.668657e-01 7.752930e-01 3.585958e-01 2.255411e-01 1.460673e-01 1.126028e-01
<GCONST> 1.087999e+02
<MIXTURE> 21 3.588456e-02
<MEAN> 39
 2.835178e+00 1.043510e+01 6.384983e+00 4.760346e+00 3.032944e+00 5.366071e-01 1.153934e+00 -7.548862e-01 -6.098782e+00 -2.349909e+00 -2.054267e+00 -2.232611e+00 -8.394449e+00 5.037457e-01 -3.776203e-03 -7.321243e-01 -3.662513e-01 5.600693e-02 1.837977e-01 2.467447e-01 4.170440e-02 -4.552713e-01 -5.552078e-01 -1.053042e-01 4.235290e-02 3.377874e-01 -1.441489e-01 -1.147773e+00 -1.147580e+00 -3.518362e-01 -7.554553e-02 9.676520e-02 -5.483093e-01 1.646387e-01 1.077885e+00 6.191145e-01 2.265910e-01 2.030018e-01 1.999557e-01
<VARIANCE> 39
 5.980754e+00 2.193968e+01 2.240192e+01 2.033620e+01 2.026350e+01 5.277520e+00 2.255188e+01 4.961794e+01 1.242169e+01 9.718357e+00 2.572061e+01 3.999503e+01 2.608294e+01 1.017147e+00 7.473039e-01 2.683116e+00 1.066267e+00 1.679557e+00 1.136048e+00 1.352024e+00 2.477549e+00 1.508789e+00 1.841067e+00 1.123406e+00 7.838097e-01 1.960008e+00 1.528366e-01 3.112230e-01 6.200857e-01 4.199545e-01 2.802489e-01 2.356454e-01 4.322513e-01 7.470257e-01 1.613812e-01 3.029507e-01 3.357620e-01 4.119374e-01 6.251575e-01
<GCONST> 9.985284e+01
<MIXTURE> 22 1.785013e-02
<MEAN> 39
 -1.011351e+01 -2.013124e+00 3.431757e+00 -5.718244e+00 9.071092e+00 -3.343319e+00 -6.149662e+00 2.266072e+00 4.339633e-01 2.565428e+00 3.758958e-01 1.607726e+00 -1.207208e+01 2.740901e-02 4.614520e-01 -7.493491e-02 -3.211103e-01 1.054163e+00 1.010694e+00 -8.094677e-01 -1.543340e+00 -1.172396e+00 -1.185930e+00 -2.388363e-02 8.973521e-01 -1.385356e-01 9.581147e-02 -8.145863e-02 -2.548382e-01 1.856072e-01 -1.536824e-01 -2.373166e-01 1.723115e-01 -1.607874e-01 -1.654036e-01 3.006076e-01 -6.265211e-02 6.117133e-02 1.207899e-01
<VARIANCE> 39
 1.922196e+01 8.704507e+01 3.593737e+01 2.693559e+01 4.228350e+01 3.511087e+01 3.378935e+01 1.145528e+01 1.657284e+01 1.388707e+02 8.286012e+01 1.367146e+01 9.236031e+00 5.299534e-01 2.241519e+00 2.000700e+00 8.475213e-01 5.916891e-01 1.954715e+00 3.440674e+00 5.206056e-01 4.019996e+00 5.200186e+00 2.096102e+00 2.927765e+00 1.306386e-01 7.546061e-02 1.442629e-01 5.187619e-02 3.000963e-01 1.396174e-01 1.666221e-01 4.752323e-01 1.486674e-01 1.134125e-01 5.380408e-01 3.329023e-01 8.350293e-02 2.701302e-02
<GCONST> 9.539646e+01
<MIXTURE> 23 2.525213e-02
<MEAN> 39
 1.508009e+00 8.477481e+00 4.532853e+00 3.970326e+00 5.161745e+00 1.620005e+00 6.477396e-01 -3.610634e-01 -6.651653e-01 1.791148e+00 3.218880e-01 8.562039e-01 -1.079737e+01 3.453531e+00 2.747987e+00 5.205438e-01 4.611028e-01 -6.229994e-01 -1.481887e+00 -1.815855e-01 -4.562229e-01 1.724877e-02 -5.222866e-02 -1.427177e+00 -5.900865e-01 3.537242e+00 -6.348897e-01 -9.542206e-01 -8.505088e-01 -4.621174e-01 -4.070538e-02 -2.885183e-01 -6.194841e-01 -3.898064e-01 1.058664e-01 -1.920970e-01 2.514291e-02 -9.053953e-02 4.333843e-02
<VARIANCE> 39
 2.042537e+01 2.970872e+01 1.400371e+01 2.337310e+01 6.994936e+00 2.057517e+01 1.854554e+01 1.699251e+01 3.681483e+01 1.806625e+01 1.589096e+01 1.171216e+01 6.921656e+01 2.796396e+00 2.466028e+00 1.599710e+00 3.026145e+00 4.430963e+00 3.460058e+00 1.764264e+00 6.397880e+00 3.523770e+00 4.684652e+00 7.293329e+00 2.817274e+00 2.761078e+00 4.021052e-01 3.955527e-01 2.479930e-01 4.815294e-01 6.092504e-01 6.594861e-01 4.928095e-01 6.133693e-01 5.366489e-01 6.368923e-01 7.917231e-01 2.967953e-01 5.168006e-01
<GCONST> 1.168122e+02
<MIXTURE> 24 3.941397e-02
<MEAN> 39
 -1.247866e+00 1.164337e+00 3.361774e-01 -4.023123e+00 1.562165e-04 3.181372e+00 -2.540674e+00 -2.639566e-02 -1.975227e-01 3.898935e-01 1.631703e+00 4.282073e+00 -1.264717e+00 1.173646e+00 -1.198919e+00 -2.157386e+00 -1.203522e+00 4.795196e-01 -1.501289e+00 -8.130654e-01 -5.462875e-01 8.042817e-01 5.882395e-01 -4.252749e-01 -8.144962e-01 9.863948e+00 1.257835e-01 -2.209616e-01 -4.294763e-01 6.265553e-01 4.947320e-01 -2.520629e-01 1.631722e-01 3.320997e-01 5.463485e-01 -4.804442e-03 -1.129930e-01 -4.668038e-01 -1.890108e+00
<VARIANCE> 39
 1.723672e+01 3.160833e+01 3.309846e+01 1.413698e+01 3.158401e+01 2.294173e+01 2.463705e+01 1.380353e+01 1.733790e+01 1.889788e+01 1.449649e+01 1.665404e+01 9.997933e+01 1.405534e+00 2.790182e+00 2.090786e+00 3.659492e+00 4.091257e+00 4.154983e+00 2.179628e+00 2.839329e+00 1.501048e+00 3.382559e+00 1.931420e+00 3.753115e+00 3.358375e+01 3.886870e-01 3.330389e-01 4.653800e-01 3.084581e-01 6.585391e-01 4.317088e-01 4.445080e-01 2.637337e-01 3.731906e-01 3.374924e-01 2.915992e-01 2.929666e-01 2.603698e+00
<GCONST> 1.166393e+02
<MIXTURE> 25 3.933670e-02
<MEAN> 39
 3.051875e-01 9.272922e+00 7.797009e+00 5.403314e+00 4.113369e+00 5.585499e+00 -1.392445e+00 -1.367705e+00 -1.105550e+00 -2.477889e-01 -6.891629e-01 -3.147845e-01 -6.712776e+00 1.036290e+00 1.835416e+00 1.556997e-01 -2.377980e-01 5.131731e-01 -6.799954e-01 -7.744898e-01 -1.192623e+00 -1.222814e+00 -5.591862e-01 -5.757545e-01 -5.767344e-01 8.774178e+00 3.413652e-02 -9.290561e-01 -9.499048e-01 -3.421781e-01 -9.517048e-02 8.244787e-02 2.136298e-01 1.800808e-01 3.069451e-01 2.769352e-01 3.187515e-01 1.518235e-01 -3.496488e+00
<VARIANCE> 39
 3.971425e+00 8.944499e+00 1.130481e+01 2.156677e+01 1.273146e+01 8.175035e+00 1.063978e+01 2.052643e+01 4.713408e+00 8.199235e+00 1.216852e+01 1.079905e+01 2.389575e+01 7.037291e-01 2.052883e+00 2.418862e+00 1.365264e+00 2.322470e+00 1.313834e+00 1.536994e+00 6.770746e-01 1.234600e+00 1.610628e+00 1.460517e+00 1.321389e+00 3.811945e+01 6.790257e-02 2.378505e-01 2.200402e-01 4.026441e-01 3.237253e-01 2.018150e-01 2.589343e-01 4.572697e-01 1.467048e-01 1.794285e-01 2.076249e-01 2.241989e-01 1.964299e+00
<GCONST> 9.274444e+01
<MIXTURE> 26 2.432804e-02
<MEAN> 39
 -8.769156e+00 1.462067e+00 9.775873e-01 1.437669e+00 -2.166383e+00 3.929004e-01 -2.477902e+00 1.422893e+00 1.848178e+00 2.737315e+00 1.382861e-01 2.647148e+00 -2.462803e+01 2.120858e-02 -6.667253e-02 -7.675712e-01 -1.014416e+00 -5.721996e-01 3.580648e-01 -3.927325e-01 -1.751861e+00 7.683885e-01 -3.349493e-01 3.142368e-01 7.104982e-01 -2.212767e-01 -1.131413e-02 -6.100594e-02 -3.997616e-02 1.958546e-01 2.797978e-01 6.430911e-02 1.793134e-01 1.890144e-01 -1.190300e-01 1.813267e-01 4.731245e-02 1.475288e-01 -3.156300e-02
<VARIANCE> 39
 9.173605e+00 3.146505e+01 4.632697e+00 8.210208e+00 1.982577e+01 1.720182e+01 1.436909e+01 4.573547e+01 3.658809e+01 1.910792e+01 1.856474e+01 3.517801e+01 2.892089e+01 1.000605e-01 3.436992e-01 3.738520e-01 5.313196e-01 1.309794e+00 3.822234e-01 1.815435e+00 3.783268e+00 2.549261e+00 1.802637e+00 2.637201e-01 1.455878e+00 3.304529e-01 1.786098e-02 4.795739e-02 8.373647e-02 6.362680e-02 8.369651e-02 5.157309e-02 2.003302e-01 3.234377e-01 1.576214e-01 6.397355e-02 1.578018e-01 1.292210e-01 1.681337e-02
<GCONST> 7.235196e+01
<MIXTURE> 27 2.566617e-02
<MEAN> 39
 -6.700265e+00 1.340110e+00 -2.500690e+00 1.061121e+00 -2.540645e+00 4.380785e+00 -2.189646e+00 -1.394907e+00 1.868942e+00 3.049409e+00 1.388215e+00 2.079854e+00 -2.257136e+01 -4.391216e-02 -9.294820e-01 3.375282e-01 2.452194e-02 3.355205e-02 3.676279e-01 8.631344e-01 7.705227e-02 -2.682859e-01 -1.120331e+00 -8.860523e-01 -1.369475e-01 1.534407e+00 2.671968e-01 -1.105472e-01 8.538137e-02 -9.541455e-02 2.798738e-01 -1.317156e-01 -3.011986e-01 7.993093e-02 -1.319175e-01 1.472911e-02 -1.019764e-01 -5.102395e-01 1.314186e+00
<VARIANCE> 39
 1.466922e+01 3.100932e+01 1.418832e+01 1.084639e+01 2.106061e+01 1.300279e+01 1.556776e+01 1.167707e+01 1.422890e+01 1.450667e+01 5.595882e+01 3.374778e+01 8.207178e+01 1.535027e+00 9.861526e-01 1.192517e+00 2.717196e+00 3.819715e+00 1.341349e+00 1.098101e+00 7.330756e-01 1.776614e+00 1.191811e+00 4.298486e+00 1.851898e+00 1.258310e+01 5.085306e-02 1.944006e-01 1.989860e-01 1.334899e-01 3.579064e-01 2.500903e-01 6.611492e-02 1.882766e-01 4.143737e-01 1.937883e-01 7.929305e-01 2.232178e-01 8.682981e-01
<GCONST> 9.985476e+01
<MIXTURE> 28 2.318712e-02
<MEAN> 39
 -1.423801e-01 1.185809e+00 3.587018e+00 1.252895e+00 2.889275e+00 4.760401e+00 -6.523550e-01 1.406541e+00 -1.773169e+00 6.418919e-01 -7.462261e-01 3.924936e-01 -5.751429e+01 -5.610814e-01 3.882298e-01 -2.523162e-01 -1.153474e-01 -3.695575e-01 -3.144571e-01 -3.978022e-01 -1.873414e-01 -1.599369e-01 -3.012743e-02 -1.085213e-01 -6.717762e-02 1.056271e+01 2.524261e-01 4.310848e-01 7.158212e-02 2.709621e-01 1.677061e-01 -3.376461e-01 -3.713791e-01 -2.687289e-01 1.063339e-01 6.682909e-02 3.965117e-02 4.742059e-02 3.754983e+00
<VARIANCE> 39
 7.330304e+00 1.686545e+01 8.154711e+00 9.181682e+00 3.416021e+00 2.006551e+01 6.652550e+00 9.337703e+00 8.810324e+00 1.431149e+01 9.193174e+00 1.130937e+01 1.097532e+01 1.018269e-01 1.084365e-01 3.044207e-01 2.073604e-01 9.665993e-02 3.982820e-01 1.832815e-01 6.816635e-02 1.192738e-01 1.479623e-01 1.449232e-01 1.199488e-01 9.786357e+00 4.641895e-02 9.152333e-02 1.318977e-01 1.392235e-01 1.756261e-01 2.685313e-01 7.980838e-02 1.244736e-01 1.586860e-01 1.250319e-01 1.406123e-01 7.183170e-02 2.553535e+00
<GCONST> 5.562450e+01
<MIXTURE> 29 2.551375e-02
<MEAN> 39
 1.566147e-02 1.790998e+00 4.134125e+00 5.009712e+00 3.406664e+00 8.887884e+00 2.049637e+00 3.355920e+00 2.497077e+00 1.615916e+00 3.039003e+00 1.809992e+00 -5.949316e+01 0.000000e+00 0.000000e+00 0.000000e+00 0.000000e+00 0.000000e+00 0.000000e+00 0.000000e+00 0.000000e+00 0.000000e+00 0.000000e+00 0.000000e+00 0.000000e+00 0.000000e+00 5.038628e-02 1.062696e-01 -1.524748e-01 -2.585533e-01 -1.448371e-01 -1.891118e-01 -2.738839e-01 -1.182265e-01 -2.335796e-01 -1.514032e-01 -2.338649e-01 -1.562057e-01 3.811772e+00
<VARIANCE> 39
 9.270470e+00 1.372271e+01 1.509047e+01 8.568564e+00 2.262385e+01 4.227382e+00 8.627206e+00 1.480352e+01 5.432096e+00 5.623322e+00 2.373926e+00 4.038439e+00 6.338090e+00 1.285030e-02 3.524570e-02 3.338051e-02 3.042886e-02 3.033499e-02 3.520322e-02 3.440167e-02 3.226241e-02 2.978184e-02 2.749624e-02 2.482363e-02 2.236510e-02 1.306386e-01 2.616057e-02 2.082263e-01 2.064366e-01 1.356364e-01 1.358891e-01 1.025070e-01 5.241679e-02 1.138714e-01 2.103118e-02 4.868036e-02 4.558969e-02 2.989152e-02 9.166530e-01
<GCONST> 2.169261e+01
<MIXTURE> 30 2.996325e-02
<MEAN> 39
 1.629345e+00 6.528844e+00 3.002082e+00 4.120772e+00 2.937796e+00 2.523271e+00 -4.128969e+00 2.079030e+00 1.303522e+00 -6.087104e-01 -4.568513e-01 -9.880558e-01 -1.090954e+01 -1.562496e-01 -8.686483e-02 4.575208e-01 -8.182923e-02 -3.719643e-01 -7.381761e-01 3.947856e-01 4.776522e-02 -5.826066e-01 -2.123915e-01 -5.846949e-01 -5.743946e-01 -7.845340e-02 -9.337480e-02 1.005254e-01 7.395982e-02 1.493896e-01 -2.524656e-01 2.969198e-01 2.141685e-01 -1.683311e-01 3.796798e-03 -6.720874e-02 -2.287235e-02 -4.749505e-02 -1.134562e-01
<VARIANCE> 39
 1.687032e+01 2.817302e+01 1.273439e+01 2.877618e+01 3.795138e+01 5.733776e+01 3.318962e+01 5.347672e+01 1.855704e+01 1.027795e+01 3.831346e+01 3.576869e+01 1.575181e+01 2.143348e-01 7.578678e-01 1.075637e+00 3.055512e+00 9.155325e-01 2.472296e+00 3.003085e+00 2.540071e+00 1.137436e+00 1.616446e+00 2.269146e+00 1.206337e+00 1.626636e-01 1.670372e-02 5.070514e-02 1.717152e-01 4.248316e-01 1.051547e-01 1.901337e-01 3.264496e-01 2.529308e-01 7.166546e-02 6.039133e-02 3.313579e-01 1.096076e-01 1.899322e-02
<GCONST> 8.734344e+01
<MIXTURE> 31 1.959141e-02
<MEAN> 39
 1.600108e+00 2.818973e+00 6.866473e+00 4.454730e+00 4.814390e+00 4.890649e+00 -1.077780e+00 4.579454e+00 4.335117e-02 2.119185e+00 -4.309688e-01 1.147472e+00 -5.083875e+01 -4.287490e-01 -1.786906e+00 -3.187034e+00 -9.911420e-01 -1.193176e+00 -9.462918e-01 -1.407593e-01 -5.857890e-01 -5.901141e-01 -8.520503e-01 -3.759455e-01 -6.082025e-03 1.544354e+01 8.836668e-03 -8.546850e-01 -1.319489e+00 -1.135383e-01 -1.099684e-01 -3.699974e-01 8.385091e-02 -1.361230e-01 -1.179402e-01 -2.945513e-01 -8.531272e-02 -5.272849e-02 3.667958e+00
<VARIANCE> 39
 1.388309e+01 1.451685e+01 3.751745e+00 1.186356e+01 5.734604e+00 4.972432e+01 1.239828e+01 8.566524e+00 1.662140e+01 2.556441e+00 3.966205e+00 1.000873e+01 1.922185e+02 1.439002e+00 3.559230e+00 4.263980e+00 1.042122e+00 1.077427e+00 1.603853e+00 2.144419e+00 2.307515e+00 1.401744e+00 8.315094e-01 1.200712e+00 9.258608e-01 1.886683e+01 2.278768e-01 2.284378e-01 3.062392e-01 2.201112e-01 1.549404e-01 2.644403e-01 2.456783e-01 1.926417e-01 3.165888e-01 1.057464e-01 2.582820e-01 8.880308e-02 5.033080e+00
<GCONST> 9.480016e+01
<MIXTURE> 32 2.102273e-02
<MEAN> 39
 -3.044002e+00 2.270288e+00 2.370174e+00 2.154265e+00 2.406022e+00 4.165992e+00 3.302177e-01 7.572950e-01 -1.361888e-01 9.006939e-03 -8.502424e-02 3.195916e-03 -1.638362e+01 9.086790e-01 2.463791e+00 1.259933e+00 7.772520e-02 -2.722064e-01 -9.700323e-01 -1.473349e+00 -1.016560e+00 -8.524954e-01 9.267244e-02 -7.208124e-01 -4.101997e-01 1.474202e+01 5.703488e-01 2.861755e-01 -6.563853e-02 2.908956e-02 -3.042937e-02 -5.313675e-02 -6.256389e-02 -4.482213e-02 -4.025010e-02 8.325028e-02 1.894657e-01 -3.527530e-03 -1.926594e+00
<VARIANCE> 39
 7.636270e+00 1.301859e+01 9.543593e+00 1.079948e+01 5.215049e+00 1.201739e+01 1.684118e+01 7.243127e+00 9.899961e+00 1.040970e+01 1.308801e+01 1.040685e+01 4.420778e+02 2.859335e-01 4.525376e-01 5.682502e-01 1.708983e+00 2.304425e+00 1.927462e+00 1.111427e+00 1.017091e+00 1.105202e+00 9.372543e-01 1.260918e+00 2.866991e-01 1.233695e+01 8.511674e-02 1.549604e-01 1.889469e-01 1.958161e-01 2.077396e-01 1.916032e-01 1.397484e-01 2.509975e-01 1.492992e-01 1.232717e-01 1.410769e-01 8.418000e-02 7.405124e+00
<GCONST> 8.593890e+01
<STATE> 3
<NUMMIXES> 32
<MIXTURE> 1 2.379830e-02
<MEAN> 39
 -5.206198e+00 -6.452183e+00 1.056804e+00 -3.523960e+00 1.597188e+01 -5.968634e+00 -2.948932e+00 9.648324e+00 1.268554e+01 -3.914285e+00 6.625940e+00 2.761417e+00 9.653795e+00 2.404180e-01 7.616116e-01 2.129271e-01 -4.686009e-01 6.081641e-02 -7.602252e-01 8.558604e-01 -2.269815e-01 -4.870042e-01 4.753460e-01 1.603895e-01 6.819199e-01 -1.730671e-01 2.548019e-01 3.619159e-01 -3.582886e-03 -1.344389e-01 -8.543407e-01 3.333617e-01 2.246092e-01 -4.884567e-01 -4.285695e-01 4.644923e-01 -1.830039e-01 -2.269132e-01 -2.929426e-01
<VARIANCE> 39
 1.708354e+00 6.322758e+00 4.924580e+00 5.101105e+00 7.299935e+00 4.550292e+00 4.175173e+01 1.713580e+01 1.538900e+01 1.518588e+01 8.768319e+00 1.357424e+01 2.721994e+00 7.871743e-01 1.581845e+00 1.479594e+00 2.642910e-01 6.296581e+00 1.065238e+00 4.283512e+00 8.593130e+00 2.972024e+00 4.067173e+00 1.196461e+00 5.045510e+00 2.547655e-01 1.048667e-02 2.342943e-02 3.424769e-01 1.558337e-01 4.067158e-01 3.972803e-02 1.075471e+00 8.163515e-01 6.241431e-01 5.214375e-01 3.381708e-01 1.299789e+00 1.825463e-01
<GCONST> 8.716048e+01
<MIXTURE> 2 3.852187e-02
<MEAN> 39
 1.567944e-01 -4.914286e+00 -7.823633e+00 -5.221496e+00 -1.612946e+00 3.528733e+00 -8.100053e-01 1.093214e+00 7.900827e+00 4.184983e+00 2.088596e+00 -2.006525e+00 1.045359e+01 -9.100930e-01 -1.272411e+00 -7.977166e-01 3.651328e-01 8.950679e-01 -6.304700e-01 2.014478e-01 1.916691e+00 1.449951e+00 -1.010939e+00 -3.749982e-01 -2.583609e-01 1.112450e+00 -3.423644e-02 3.518589e-01 6.999073e-01 6.397166e-01 3.626620e-01 -4.355797e-01 -6.070578e-02 3.944661e-01 -7.134156e-01 -5.028471e-01 -3.655142e-02 6.263644e-01 -1.305853e+00
<VARIANCE> 39
 8.073716e+00 1.155229e+01 2.482343e+01 1.547869e+01 2.045051e+01 1.676758e+01 1.085769e+01 4.174958e+01 2.941671e+01 1.978210e+01 2.509223e+01 1.419823e+01 1.112027e+01 8.682564e-01 4.562473e-01 3.028567e+00 2.554024e+00 4.023417e+00 2.347857e+00 4.291109e+00 2.772464e+00 3.593401e+00 3.318538e+00 3.832064e+00 3.290279e+00 3.363475e+00 1.986402e-01 1.790252e-01 3.949989e-01 2.788489e-01 6.080474e-01 5.380868e-01 4.305860e-01 9.090378e-01 1.131795e+00 4.289692e-01 7.772985e-01 9.466626e-01 1.544829e+00
<GCONST> 1.126444e+02
<MIXTURE> 3 4.432273e-02
<MEAN> 39
 4.436012e+00 -8.703330e+00 -1.319424e+01 2.070547e+00 3.219517e+00 -3.876285e+00 1.172165e+00 8.735819e+00 3.784627e+00 1.101821e+00 2.507100e+00 6.525311e+00 8.791568e+00 -9.444332e-01 -1.942742e+00 -1.644848e-01 1.151958e+00 2.159607e-01 -1.587595e-01 2.819299e+00 2.121322e-01 -2.346526e+00 -8.785728e-01 1.515423e+00 1.102829e+00 1.034418e+00 -2.745143e-01 7.131020e-01 1.424838e+00 1.484982e-01 -2.978823e-01 8.258535e-01 1.267827e-01 -1.015777e+00 -5.369715e-01 1.644340e-01 2.034424e-01 -5.631721e-01 -7.375839e-01
<VARIANCE> 39
 3.985824e+00 1.065650e+01 8.162878e+00 1.424390e+01 9.787116e+00 1.345364e+01 1.921394e+01 1.578947e+01 2.799457e+01 5.330806e+01 8.857660e+01 2.496127e+01 6.961358e+00 5.618386e-01 9.964100e-01 3.154576e+00 7.540074e-01 1.169104e+00 1.225601e+00 1.775568e+00 4.130641e+00 2.485143e+00 2.604726e+00 2.121358e+00 3.317013e+00 5.183163e-01 1.049976e-01 1.469246e-01 2.198590e-01 4.526897e-01 3.218374e-01 1.790326e-01 2.861655e-01 3.669214e-01 5.605251e-01 8.890396e-01 8.370779e-01 4.953083e-01 1.363928e-01
<GCONST> 9.837142e+01
<MIXTURE> 4 2.235124e-02
<MEAN> 39
 6.664875e+00 8.749289e+00 4.365108e+00 5.030466e+00 1.696521e+00 3.622905e+00 -2.489189e+00 4.925609e+00 1.431343e+00 4.484400e+00 2.874478e+00 4.734305e+00 -5.928226e+00 6.798505e-01 -1.820279e+00 -1.676534e+00 -6.400322e-02 5.859571e-01 3.003345e-02 8.095111e-01 9.065006e-01 1.253423e+00 -1.986790e-02 4.622067e-01 3.785286e-01 2.541710e+00 -7.115529e-01 -1.443240e+00 -7.962931e-01 -4.512299e-01 7.360048e-02 -2.837244e-01 4.298877e-01 1.638777e-01 3.196753e-02 -6.091141e-02 1.576526e-01 5.093276e-02 -1.460044e+00
<VARIANCE> 39
 4.075408e+00 1.447087e+01 6.766117e+00 9.903156e+00 1.961782e+01 7.268198e+00 1.626859e+01 2.463999e+01 3.194456e+01 3.795346e+00 1.126801e+01 1.742923e+01 1.115892e+01 1.869388e+00 3.467776e+00 2.174675e+00 1.715964e+00 2.200916e+00 1.341282e+00 1.907124e+00 1.684088e+00 2.571161e+00 2.171323e+00 4.680710e-01 1.100074e+00 4.288760e+00 2.141715e-01 3.332520e-01 3.068074e-01 2.790788e-01 6.556232e-01 1.714226e-01 2.650690e-01 5.471811e-01 1.062818e+00 1.601585e-01 1.051164e-01 2.834772e-01 3.058681e+00
<GCONST> 9.796986e+01
<MIXTURE> 5 4.252641e-02
<MEAN> 39
 2.176965e+00 -5.053778e+00 -1.097116e+01 2.315821e+00 6.127442e+00 -3.296149e+00 1.989022e+00 4.614246e+00 1.053246e+00 -5.259671e+00 -2.980562e+00 -1.748725e-01 8.483543e+00 -7.424741e-01 -6.581721e-01 1.915997e+00 1.542077e+00 -1.361991e+00 -4.512248e-01 1.740695e+00 -8.400041e-03 -1.454128e+00 -1.360186e+00 4.837738e-01 8.071797e-01 4.156960e-01 1.085468e-03 8.960177e-01 1.049087e+00 -1.406253e-01 -5.237992e-01 2.887422e-01 -3.960676e-01 -6.331097e-01 -8.234583e-02 6.245688e-01 2.983891e-01 -1.260517e-01 -4.367024e-01
<VARIANCE> 39
 4.152545e+00 1.640008e+01 1.955037e+01 1.253217e+01 1.196079e+01 2.308164e+01 2.456222e+01 2.733648e+01 9.259315e+00 1.141333e+01 5.443150e+00 7.503399e+00 2.041793e+01 3.588949e-01 6.479145e-01 1.444538e+00 7.610085e-01 1.133745e+00 1.876025e+00 2.021994e+00 1.435702e+00 1.189308e+00 1.292253e+00 7.544175e-01 7.866188e-01 1.658763e-01 6.415452e-02 2.710169e-01 3.354268e-01 2.129402e-01 1.023947e-01 3.007455e-01 3.290783e-01 5.173429e-01 3.067358e-01 2.551997e-01 1.223588e-01 1.078469e-01 9.083804e-02
<GCONST> 8.226791e+01
<MIXTURE> 6 3.028523e-02
<MEAN> 39
 1.165967e+00 -3.081626e+00 -1.240492e+00 5.319450e+00 -1.337563e+00 -2.408632e+00 4.761715e+00 3.990941e+00 -1.772510e+00 -2.241271e+00 2.001086e-01 -9.112526e-01 9.715203e+00 -3.869506e-01 3.041084e+00 3.868189e+00 1.299090e+00 -8.993585e-01 -1.144268e-01 -1.129712e-01 -2.084006e+00 -4.273359e-01 6.020353e-02 3.559677e-01 1.101607e-01 -1.577893e+00 1.855757e-01 7.554940e-01 -2.419287e-01 -5.726485e-01 6.226996e-01 -4.002147e-02 -4.747809e-01 -3.932458e-01 5.108984e-01 2.128636e-01 -2.141183e-01 5.196004e-02 -4.133570e-01
<VARIANCE> 39
 9.156884e+00 1.193896e+01 2.000009e+01 1.399146e+01 2.973614e+01 1.249016e+01 2.905175e+01 1.570193e+01 2.276442e+01 1.568548e+01 1.043686e+01 6.011549e+00 3.779138e+01 2.689086e-01 2.028120e+00 1.536058e+00 1.724525e+00 2.825202e+00 5.385974e+00 3.542352e+00 3.492396e+00 3.043253e+00 2.485044e+00 2.088349e+00 7.256571e-01 7.030622e-01 6.159287e-02 3.310306e-01 4.142390e-01 1.488961e-01 4.401965e-01 5.455369e-01 5.453463e-01 3.377894e-01 6.272106e-01 2.670858e-01 2.703623e-01 1.406308e-01 1.138642e-01
<GCONST> 9.836143e+01
<MIXTURE> 7 2.729510e-02
<MEAN> 39
 4.439804e+00 -2.590732e+00 -1.193343e+01 -2.882797e+00 3.722738e+00 -6.710840e-01 -5.563354e+00 2.322775e+00 5.069135e+00 7.734358e+00 -3.619493e+00 -4.172314e+00 7.548040e+00 -7.375143e-01 -2.018806e+00 -1.065037e+00 3.675089e-01 1.327449e-01 -8.635251e-01 1.843875e+00 2.628248e+00 1.080945e+00 -1.733342e+00 -9.250720e-01 2.832722e-02 1.853127e+00 -5.039920e-01 5.150483e-01 1.577074e+00 7.735411e-01 8.844986e-02 8.720803e-02 1.188416e+00 -5.844441e-02 -5.395873e-01 -1.322621e+00 2.483019e-01 7.859402e-01 -9.279044e-01
<VARIANCE> 39
 6.136428e+00 8.275574e+00 1.478766e+01 9.572790e+00 1.522236e+01 2.059970e+01 1.402925e+01 2.375310e+01 1.368355e+01 7.195668e+00 6.993433e+00 1.491385e+01 1.516440e+01 1.078745e+00 8.883742e-01 3.680285e+00 2.040200e+00 1.531593e+00 2.487693e+00 1.919175e+00 2.908059e+00 1.173725e+00 1.708561e+00 4.860785e-01 1.674972e+00 1.742859e+00 1.066258e-01 2.639126e-01 2.237082e-01 7.923140e-02 4.223393e-01 3.549794e-01 2.853571e-01 6.897148e-01 6.336561e-01 3.342966e-01 1.200640e-01 1.794085e-01 6.054052e-02
<GCONST> 9.082582e+01
<MIXTURE> 8 3.281766e-02
<MEAN> 39
 3.495152e+00 8.178408e+00 1.912694e-01 8.033608e+00 8.899400e+00 -5.726092e+00 -6.403288e+00 -3.209564e+00 4.461005e+00 -5.403447e-02 -3.267768e+00 -4.135230e-01 -2.213665e+00 2.452265e-01 -2.241934e+00 -2.829591e+00 -1.616810e+00 -1.912287e+00 -4.955724e-01 1.445538e+00 9.231604e-01 1.555353e-01 -1.675505e-01 9.699624e-02 -3.033561e-01 2.780995e+00 -3.298978e-01 -1.182913e+00 -6.443956e-01 -8.053187e-01 -8.274302e-01 1.046694e+00 1.046458e+00 6.163368e-01 -4.490289e-01 -3.252424e-01 2.101210e-01 -4.425973e-02 -8.986784e-02
<VARIANCE> 39
 1.203472e+01 2.491717e+01 4.780278e+01 4.776719e+01 5.087206e+01 3.596866e+01 2.962187e+01 2.481356e+01 4.547689e+01 3.001111e+01 1.773355e+01 2.590886e+01 7.838996e+01 8.984900e-01 4.017179e+00 2.593707e+00 6.903245e+00 4.265173e+00 7.282252e+00 4.550433e+00 5.463952e+00 2.309166e+00 2.342519e+00 1.820743e+00 1.109796e+00 1.851816e+00 1.314141e-01 1.724402e-01 5.620170e-01 1.038610e+00 8.318544e-01 9.488505e-01 6.054537e-01 8.236667e-01 8.624316e-01 6.849852e-01 4.064961e-01 2.798003e-01 2.373567e+00
<GCONST> 1.236683e+02
<MIXTURE> 9 2.989770e-02
<MEAN> 39
 1.382820e+00 -1.171151e+01 -1.130809e+01 5.370634e+00 8.058956e-01 2.087610e+00 7.991320e+00 5.815429e+00 -2.033974e+00 8.995076e-01 9.034046e+00 9.826823e+00 9.621167e+00 -9.275984e-01 -1.143977e+00 1.570527e+00 2.275996e-01 -1.533859e+00 2.228275e+00 1.559753e+00 -2.073746e+00 -1.510799e+00 3.469493e-01 6.789280e-01 -1.263595e-01 5.043272e-01 1.806030e-01 6.682296e-01 9.514393e-01 -6.158370e-01 -2.570659e-01 2.892276e-01 -9.621003e-01 -4.044447e-01 8.007849e-01 6.698818e-01 -6.951520e-01 -7.823769e-01 -4.401799e-01
<VARIANCE> 39
 8.834410e+00 1.569300e+01 8.206119e+00 7.835872e+00 1.766182e+01 1.470159e+01 1.179830e+01 1.172195e+01 2.136633e+01 2.883174e+01 6.693562e+01 3.725430e+01 1.146824e+01 1.670906e-01 4.978471e-01 1.499944e+00 1.853192e+00 9.722942e-01 1.276385e+00 3.232332e+00 1.411777e+00 1.440051e+00 1.651350e+00 4.912220e+00 1.931309e+00 2.710263e-01 1.107235e-01 2.870015e-01 1.424335e-01 2.341413e-01 3.136629e-01 3.461715e-01 2.467067e-01 4.207046e-01 2.072126e-01 3.228210e-01 8.261178e-01 4.354545e-01 1.215981e-01
<GCONST> 9.285669e+01
<MIXTURE> 10 2.814904e-02
<MEAN> 39
 6.248733e+00 1.277641e+00 -5.527711e+00 5.543940e-01 2.039868e+00 -7.070134e-02 -2.577248e+00 2.545934e+00 3.246731e+00 5.506142e+00 3.154603e+00 3.160907e+00 -2.296438e+00 -2.400353e-01 -3.536425e+00 -3.393918e+00 -1.696658e+00 -1.297188e+00 -1.077589e+00 5.950240e-02 1.347551e+00 1.997718e+00 7.187310e-01 2.521940e-02 -1.889856e-02 4.458384e+00 -5.646383e-01 -2.138006e-01 1.045024e-01 4.899628e-01 1.715091e-01 7.496285e-02 3.098637e-01 7.009184e-02 -4.576863e-01 -4.821331e-01 8.232778e-02 8.957254e-03 8.830155e-02
<VARIANCE> 39
 2.209132e+00 1.649680e+01 1.181627e+01 8.387317e+00 1.375148e+01 9.622111e+00 3.131090e+01 2.299340e+01 1.308196e+01 8.478912e+00 2.007220e+01 2.016500e+01 4.933894e+01 7.679719e-01 1.467110e+00 3.075208e+00 2.290643e+00 3.103873e+00 1.564083e+00 3.314884e+00 2.314796e+00 6.330426e+00 1.510989e+00 3.284816e+00 2.771947e+00 1.931703e+00 9.194693e-02 2.963593e-01 3.082559e-01 3.111349e-01 3.765390e-01 1.380476e-01 4.248801e-01 5.645954e-01 7.309831e-01 2.496657e-01 4.715921e-01 4.192595e-01 1.151081e+00
<GCONST> 1.032462e+02
<MIXTURE> 11 2.666730e-02
<MEAN> 39
 8.588610e-01 -5.950615e+00 -5.927372e+00 -7.575792e-01 1.483002e+00 -3.602945e+00 3.419776e+00 6.804165e+00 3.463045e+00 -3.751743e+00 -4.098516e+00 1.073000e+00 9.262012e+00 -6.792772e-01 1.751965e+00 2.893022e+00 1.584477e+00 -4.254511e-01 -6.180219e-01 1.434038e+00 -1.707362e+00 -4.578908e-01 -1.049922e+00 1.433651e+00 3.808790e-01 -9.616968e-01 -7.137070e-02 1.156802e+00 6.285622e-01 4.218719e-03 1.613346e-01 3.896496e-02 -3.328651e-01 -1.104248e+00 -1.319274e-01 6.298082e-01 4.567744e-01 -3.668507e-01 -5.035786e-01
<VARIANCE> 39
 3.486501e+00 5.674006e+00 1.304223e+01 1.182610e+01 1.556116e+01 1.763644e+01 1.975453e+01 1.058003e+01 9.000182e+00 1.859165e+01 8.376674e+00 1.646675e+01 6.189977e+00 6.543071e-01 1.771571e+00 2.511549e+00 8.683450e-01 1.426289e+00 4.089230e+00 5.343810e+00 2.252326e+00 3.183465e+00 4.836564e+00 1.548788e+00 8.249992e-01 4.934127e-01 3.540366e-02 8.640727e-02 2.859494e-01 2.339078e-01 1.883698e-01 3.756173e-01 6.573462e-01 4.480770e-01 9.974137e-02 5.957166e-01 2.232694e-01 2.135126e-01 4.489411e-02
<GCONST> 8.864359e+01
<MIXTURE> 12 2.770634e-02
<MEAN> 39
 6.253923e-01 -9.952578e+00 -8.900820e+00 7.494063e-01 2.235133e+00 1.019645e+00 7.417918e+00 5.179005e+00 -1.579521e+00 -1.750578e+00 -9.871200e-01 1.153862e+00 1.010461e+01 -9.114405e-01 -2.476940e+00 -1.206339e+00 -4.412581e-01 2.032888e-01 8.093101e-01 2.192861e+00 -8.095521e-01 -2.177059e+00 5.290147e-02 1.154967e+00 -1.354930e-01 2.686831e+00 -2.282269e-01 1.190431e+00 1.247854e+00 3.010961e-01 2.096602e-01 5.658802e-01 -5.808181e-01 -8.121643e-01 -1.352674e-01 3.252995e-01 2.403945e-01 -7.812820e-02 -2.379235e+00
<VARIANCE> 39
 7.926111e+00 8.657953e+00 1.157949e+01 6.988728e+00 1.968799e+01 3.783621e+01 1.288477e+01 7.755262e+00 3.752217e+01 9.506129e+00 1.121240e+01 1.185526e+01 2.328547e+01 8.356568e-01 2.167136e+00 2.295659e+00 2.973730e+00 2.467693e+00 2.643714e+00 1.857667e+00 1.914017e+00 3.007832e+00 1.510232e+00 2.145801e+00 2.000305e+00 2.152982e+00 1.292157e-01 8.006323e-02 1.845877e-01 2.467000e-01 5.443844e-01 4.622915e-01 3.070653e-01 2.793078e-01 7.062240e-01 2.424117e-01 6.081341e-01 2.201917e-01 3.183560e+00
<GCONST> 1.007136e+02
<MIXTURE> 13 3.496040e-02
<MEAN> 39
 4.109283e+00 -5.326504e+00 -1.425959e+01 8.584751e-01 4.572766e+00 5.844394e-01 9.229303e-02 3.763045e+00 4.570775e+00 -1.968902e+00 -3.455105e+00 -3.319740e+00 6.827682e+00 -6.866744e-01 -1.733867e+00 3.435718e-01 2.001877e+00 -7.736336e-01 -4.713792e-01 1.998582e+00 1.357479e+00 -9.212016e-01 -2.184975e+00 -7.586345e-01 7.777120e-01 7.626837e-01 -2.186972e-01 4.253181e-01 1.275392e+00 7.314368e-02 -5.562115e-01 -3.597032e-02 2.100777e-03 -4.759516e-01 -6.604584e-01 -2.764930e-02 4.343470e-01 4.127816e-01 -3.334463e-01
<VARIANCE> 39
 1.958972e+00 8.191051e+00 4.523218e+00 1.012953e+01 1.527022e+01 1.611066e+01 2.503324e+01 2.065723e+01 8.362307e+00 1.081948e+01 1.574136e+01 7.558383e+00 1.229653e+01 1.782366e-01 3.113489e-01 8.825405e-01 7.072035e-01 2.240511e+00 1.064741e+00 1.418114e+00 2.977262e+00 1.264354e+00 1.143740e+00 1.297929e+00 1.214742e+00 2.837535e-01 6.069659e-02 1.709356e-01 4.026917e-01 1.342434e-01 1.913143e-01 2.214238e-01 3.953697e-01 3.840779e-01 2.865972e-01 1.838439e-01 2.006124e-01 1.105182e-01 6.418848e-02
<GCONST> 7.830514e+01
<MIXTURE> 14 2.895614e-02
<MEAN> 39
 1.843547e+00 1.106134e+01 7.256861e+00 4.753196e+00 5.131814e+00 5.910712e-01 -4.299265e+00 -5.166308e+00 4.367635e-01 2.037126e+00 -9.811520e-01 1.111304e+00 -9.795701e+00 5.565002e-01 -2.707906e+00 -3.533204e+00 -1.620297e+00 -4.399079e-01 6.986529e-01 -2.317666e-01 6.345809e-01 8.926551e-01 5.469181e-01 -4.429414e-02 1.144602e-01 2.427502e+00 9.087618e-02 -1.145955e+00 -1.318619e+00 -5.944790e-01 -1.452181e-01 -9.643300e-03 2.793849e-01 1.001815e+00 4.876192e-02 -3.323112e-02 1.902897e-01 -2.338081e-01 1.127790e+00
<VARIANCE> 39
 3.854866e+00 1.299019e+01 1.490522e+01 2.691807e+01 1.054396e+01 9.681789e+00 2.338143e+01 3.750682e+01 1.978309e+01 9.313116e+00 8.646894e+00 9.175017e+00 2.982127e+01 5.266071e-01 1.832242e+00 2.635867e+00 2.490222e+00 1.766279e+00 2.178279e+00 2.165591e+00 2.461018e+00 1.450711e+00 2.299630e+00 4.997877e-01 1.491316e+00 1.622436e+00 8.763330e-02 2.924140e-01 2.418673e-01 4.010016e-01 1.740565e-01 2.176207e-01 5.537193e-01 5.576756e-01 1.866823e-01 2.388540e-01 6.298804e-02 1.783404e-01 1.642272e-01
<GCONST> 9.238258e+01
<MIXTURE> 15 3.415051e-02
<MEAN> 39
 -2.971333e-02 -1.157603e+01 -8.783381e+00 4.289313e-02 -1.276703e+00 -2.285883e-01 9.302189e+00 7.793024e+00 -2.907959e+00 -4.248603e+00 -8.355719e-01 1.039404e-01 1.031802e+01 -9.625309e-01 -1.109364e+00 1.264713e+00 -1.766994e-01 -2.465245e-01 1.563161e+00 2.430766e+00 -1.517313e+00 -2.556036e+00 4.517610e-01 1.277872e+00 -1.809557e-01 7.445468e-01 2.409876e-01 1.324553e+00 8.286374e-01 3.083409e-01 4.880089e-01 -2.084491e-02 -1.050120e+00 -1.084525e+00 3.799227e-01 6.450060e-01 -1.285730e-03 -1.008678e-01 -9.234123e-01
<VARIANCE> 39
 2.624295e+00 6.862516e+00 1.178422e+01 6.934551e+00 5.898860e+00 3.525480e+01 1.857358e+01 1.915473e+01 2.192480e+01 9.896822e+00 8.553617e+00 2.073603e+01 1.296529e+01 5.827338e-01 1.573145e+00 1.978971e+00 1.932041e+00 2.422264e+00 2.741321e+00 1.217190e+00 1.350662e+00 1.051657e+00 1.540598e+00 8.398321e-01 1.109551e+00 5.155790e-01 5.488180e-02 1.945711e-01 2.247560e-01 3.329372e-01 4.188881e-01 6.386534e-01 2.752565e-01 4.499402e-01 4.118649e-01 3.446529e-01 4.006103e-01 3.378516e-01 2.339097e-01
<GCONST> 9.075301e+01
<MIXTURE> 16 3.527317e-02
<MEAN> 39
 3.479812e+00 2.688382e+00 -3.766739e+00 -2.465174e+00 1.792422e+00 4.585447e+00 -3.633538e+00 -1.749941e+00 1.612715e+00 3.017187e+00 1.744697e+00 -4.940970e-02 -2.692029e-01 8.162327e-01 -3.084694e+00 -5.173177e+00 -2.014822e+00 -5.905563e-01 -1.006766e+00 -5.000758e-01 1.649669e+00 1.452833e+00 8.097014e-01 -4.597548e-01 -8.588405e-01 3.771577e+00 -1.321437e-01 -7.497566e-02 2.580268e-01 5.588945e-01 4.967884e-01 -4.351978e-01 3.263434e-01 6.147845e-01 -2.426073e-02 -3.023498e-01 -3.737604e-01 -1.003215e-01 -1.889037e-01
<VARIANCE> 39
 6.621043e+00 8.873885e+00 3.135404e+01 1.220780e+01 1.506231e+01 1.871246e+01 1.812151e+01 6.888701e+00 1.224265e+01 9.000581e+00 9.903328e+00 5.950345e+00 1.236070e+01 7.172961e-01 1.982600e+00 2.010724e+00 1.651618e+00 2.261392e+00 3.486942e+00 3.327536e+00 3.008197e+00 2.111284e+00 1.969683e+00 1.535345e+00 1.604643e+00 1.116119e+00 1.552126e-01 2.101214e-01 5.895881e-01 4.097036e-01 4.321892e-01 2.351502e-01 2.650217e-01 3.007515e-01 2.783492e-01 3.747686e-01 9.679631e-02 1.504927e-01 1.883877e-01
<GCONST> 9.399901e+01
<MIXTURE> 17 3.619137e-02
<MEAN> 39
 5.195707e+00 1.055013e+00 -1.192419e+01 -3.599425e+00 4.668937e+00 9.728028e-02 -6.220021e+00 -1.373787e+00 3.427764e+00 2.696409e+00 6.061287e-01 -2.736727e+00 6.625251e+00 5.585634e-01 -2.353028e+00 -2.521766e+00 -4.084412e-03 3.520581e-01 -3.602224e-01 -1.201674e-01 1.714128e+00 7.683952e-01 3.780066e-01 -7.475284e-01 -9.273497e-01 1.728064e+00 -3.970352e-01 7.722159e-02 1.272351e+00 9.432299e-01 -2.112838e-01 1.398651e-01 5.798327e-01 4.071562e-01 -2.566683e-01 -6.339526e-01 -2.731760e-01 2.523635e-01 -6.370421e-01
<VARIANCE> 39
 1.940355e+00 9.897315e+00 1.356678e+01 2.560565e+01 1.638266e+01 1.289761e+01 1.567810e+01 2.734663e+01 1.386488e+01 1.981482e+01 8.453454e+00 7.605595e+00 3.775780e+01 5.051692e-01 3.357876e+00 1.818873e+00 1.905125e+00 3.131953e+00 1.478855e+00 1.341547e+00 2.576787e+00 1.193468e+00 1.609608e+00 1.136832e+00 1.095458e+00 4.311381e-01 5.124878e-02 1.582837e-01 2.387808e-01 2.891817e-01 4.240772e-01 3.455413e-01 1.921860e-01 3.018338e-01 3.058245e-01 3.603715e-01 2.204878e-01 2.023890e-01 1.210021e-01
<GCONST> 9.020101e+01
<MIXTURE> 18 2.708808e-02
<MEAN> 39
 2.178855e+00 -6.227712e+00 -9.248775e+00 -1.361297e+00 4.350086e+00 -2.854503e+00 -7.783734e-01 1.171406e+01 3.634122e+00 -1.006987e+00 -2.726730e+00 3.440172e-01 9.330002e+00 -1.158672e+00 -2.580897e+00 -4.523434e-01 2.838536e-01 -8.835731e-01 2.160033e-01 2.653830e+00 2.020309e+00 -1.538684e+00 -1.672186e+00 -5.165417e-01 4.277329e-01 2.185918e+00 -1.207895e-01 9.811814e-01 1.401762e+00 5.582620e-01 -2.402189e-01 7.486326e-01 2.244473e-01 -1.530446e+00 -6.471899e-01 4.258606e-01 5.834879e-01 -3.178091e-03 -1.205098e+00
<VARIANCE> 39
 7.023140e+00 9.105611e+00 6.186511e+00 9.045720e+00 1.642215e+01 8.257525e+00 1.491959e+01 9.425546e+00 1.206695e+01 1.722424e+01 1.054245e+01 6.673944e+00 1.950439e+01 1.001570e+00 1.600071e+00 6.068788e+00 1.965100e+00 3.236375e+00 1.566743e+00 2.929057e+00 2.146477e+00 1.199260e+00 1.435856e+00 1.171014e+00 1.043893e+00 1.217995e+00 1.318064e-01 1.451250e-01 4.014478e-01 3.348406e-01 7.483283e-01 2.141602e-01 4.331521e-01 3.717161e-01 2.291538e-01 3.821346e-01 2.101332e-01 1.270671e-01 1.952795e-01
<GCONST> 9.231833e+01
<MIXTURE> 19 3.234980e-02
<MEAN> 39
 1.274545e+00 1.010380e+01 5.173788e+00 3.591958e+00 5.844123e+00 7.030360e+00 -1.877030e+00 -3.443917e-01 7.890988e-01 5.947902e-02 2.671710e+00 3.125970e-01 -8.642316e+00 6.175549e-01 -2.252330e+00 -2.143168e+00 -1.098996e+00 -6.097380e-02 -9.117042e-01 -1.039828e+00 -8.250414e-03 8.448758e-01 8.906434e-01 4.079292e-01 6.281490e-01 2.509352e+00 -3.010969e-02 -1.089216e+00 -1.066039e+00 -3.131827e-01 -2.229376e-01 -7.060846e-01 -1.795202e-01 2.849371e-01 6.493505e-02 1.442620e-01 -5.230023e-01 -3.990232e-02 5.619053e-01
<VARIANCE> 39
 6.052033e+00 1.994737e+01 1.317223e+01 8.346798e+00 1.772027e+01 1.804519e+01 6.397467e+00 9.817620e+00 1.704938e+01 1.155774e+01 1.498028e+01 7.702683e+00 2.979131e+01 9.029630e-01 8.262496e-01 3.145313e+00 2.949658e+00 1.796461e+00 1.585904e+00 2.167554e+00 1.389879e+00 1.451898e+00 1.296558e+00 2.364300e+00 1.299897e+00 1.614683e+00 1.408078e-01 3.856234e-01 4.156832e-01 2.418896e-01 2.452519e-01 1.855497e-01 4.649386e-01 1.930914e-01 3.954168e-01 2.793981e-01 3.287221e-01 3.033901e-01 7.514679e-01
<GCONST> 9.531864e+01
<MIXTURE> 20 3.586171e-02
<MEAN> 39
 9.653784e-01 -7.505542e+00 -7.315497e+00 3.304753e+00 -3.957179e+00 -8.142039e-01 3.764902e+00 8.806791e+00 -2.565196e+00 -4.559695e+00 -1.542712e+00 -2.290675e+00 1.040368e+01 -7.185099e-01 1.260744e+00 3.924701e+00 9.148574e-01 -2.046606e+00 -5.114697e-02 1.180098e+00 -2.059243e+00 -1.078710e+00 6.097317e-02 1.026960e+00 -2.236224e-01 -7.123971e-01 2.068508e-01 1.513118e+00 4.175753e-01 -8.492357e-02 6.688929e-01 -4.946005e-01 -6.206365e-01 -1.572177e+00 8.837292e-01 5.049693e-01 1.400387e-01 1.092472e-01 -8.254598e-01
<VARIANCE> 39
 1.143212e+01 6.468648e+00 2.678084e+01 2.298042e+01 1.778807e+01 1.464653e+01 2.739989e+01 1.395142e+01 1.457237e+01 1.595113e+01 1.647672e+01 1.324903e+01 2.263981e+01 3.355338e-01 3.072062e+00 2.322510e+00 1.782573e+00 2.171254e+00 2.068819e+00 2.539661e+00 6.336586e+00 2.322233e+00 1.681006e+00 1.138979e+00 1.788683e+00 5.317512e-01 1.722296e-01 5.502498e-01 4.492703e-01 6.247487e-01 5.714183e-01 4.107083e-01 4.677206e-01 3.130139e-01 4.799571e-01 4.397411e-01 2.111802e-01 4.562949e-01 6.429691e-02
<GCONST> 1.014024e+02
<MIXTURE> 21 3.827611e-02
<MEAN> 39
 1.089865e+00 -7.929747e+00 -9.161362e+00 -2.312388e+00 2.678458e+00 -1.281577e+00 -7.969946e-01 5.873410e+00 5.907784e+00 8.254393e-01 -5.621753e+00 -1.441890e+00 8.953563e+00 -5.522116e-01 -1.940300e-01 1.035212e+00 1.122335e+00 -6.897681e-01 -1.284910e+00 1.308170e+00 7.323064e-01 -6.786046e-01 -1.451675e+00 2.872636e-01 8.196773e-01 1.794279e-01 6.881960e-02 8.011732e-01 5.697891e-01 1.730671e-01 -2.563791e-02 -2.292793e-01 -1.416745e-01 -7.120249e-01 -3.562841e-01 2.046826e-01 5.577700e-01 4.682986e-02 -3.612535e-01
<VARIANCE> 39
 4.489606e+00 1.119331e+01 7.714651e+00 1.136644e+01 1.168886e+01 1.534371e+01 2.219307e+01 6.807513e+00 1.463262e+01 1.185549e+01 1.216974e+01 5.259540e+00 5.773181e+00 4.839909e-01 6.933476e-01 4.805569e-01 6.868919e-01 1.251626e+00 9.766281e-01 2.153896e+00 1.509718e+00 1.436868e+00 2.196911e+00 2.073000e+00 4.249829e-01 2.675647e-01 4.814138e-02 6.787854e-02 1.840942e-01 1.542119e-01 1.981823e-01 2.744842e-01 3.916262e-01 1.674429e-01 1.744846e-01 3.363179e-01 2.947067e-01 9.019443e-02 2.899387e-02
<GCONST> 7.530237e+01
<MIXTURE> 22 2.613088e-02
<MEAN> 39
 -2.747456e+00 -9.735615e+00 -9.565684e+00 2.481134e+00 1.012162e+00 -3.102032e+00 1.020313e+01 3.093423e-01 -3.508744e+00 2.432870e+00 5.092218e+00 2.954138e+00 1.360332e+01 -1.207050e+00 -1.242047e-01 1.792073e+00 8.784389e-02 -1.071002e+00 2.076631e+00 3.756986e-01 -2.162063e+00 3.961624e-02 6.383167e-01 4.534459e-01 -1.154341e+00 4.296066e-01 2.579982e-01 8.286737e-01 4.242670e-01 -2.831666e-01 -2.662521e-01 2.598431e-01 -1.163159e+00 -5.889864e-02 6.200369e-01 -2.805406e-01 -5.558066e-01 -1.846296e-01 -4.138408e-01
<VARIANCE> 39
 1.752071e+01 3.380865e+00 9.897814e+00 1.396006e+01 2.996319e+01 4.392273e+01 5.437862e+00 1.205203e+01 1.224548e+01 1.693916e+01 1.136799e+01 4.949081e+01 7.650934e+00 5.887573e-01 1.514350e+00 4.147316e-01 1.350161e+00 1.160196e+00 3.232517e+00 2.054341e+00 1.257067e+00 1.782481e+00 2.502603e+00 2.063482e+00 3.204649e+00 4.034128e-01 6.649660e-02 2.593281e-01 1.875145e-01 3.721054e-01 4.458030e-01 7.573124e-01 2.606423e-01 2.535290e-01 4.731055e-01 2.019739e-01 2.446402e-01 7.040133e-01 9.069258e-02
<GCONST> 9.277420e+01
<MIXTURE> 23 3.532703e-02
<MEAN> 39
 4.422338e+00 -1.116388e+00 -1.200266e+01 -3.692919e+00 6.413003e+00 -7.621487e-01 -5.925353e+00 1.282146e+00 5.140341e+00 3.235619e+00 -4.721214e-01 -1.961263e+00 5.175585e+00 -3.753384e-01 -1.342118e+00 -5.164577e-01 7.826771e-01 3.455982e-03 -1.132507e+00 1.212444e+00 1.535997e+00 5.862818e-01 -1.253376e+00 -1.168004e+00 1.455469e-01 6.895306e-01 -3.036256e-01 2.107010e-02 7.800587e-01 5.891701e-01 -5.497813e-01 -1.287042e-01 5.806274e-01 -2.200481e-02 -5.645055e-01 -4.353617e-01 -9.168711e-02 2.979931e-01 -3.309705e-01
<VARIANCE> 39
 2.328198e+00 1.363796e+01 7.321881e+00 1.267602e+01 1.272729e+01 1.808426e+01 1.670843e+01 1.248021e+01 6.319768e+00 9.069205e+00 6.635739e+00 1.091235e+01 1.830518e+01 1.098381e-01 7.251334e-01 1.216569e+00 1.077146e+00 1.262266e+00 1.636297e+00 1.203950e+00 1.972570e+00 1.229573e+00 1.266647e+00 3.787428e-01 1.258685e+00 3.816352e-01 7.581788e-02 1.098360e-01 1.392721e-01 1.056791e-01 1.606961e-01 3.710685e-01 1.213865e-01 3.764763e-01 1.624561e-01 1.943747e-01 1.808387e-01 2.757011e-01 1.885805e-01
<GCONST> 7.671784e+01
<MIXTURE> 24 3.799400e-02
<MEAN> 39
 5.372785e+00 -1.298823e+00 -1.260975e+01 -2.741183e+00 1.962446e+00 7.992460e-01 -5.386928e+00 -5.175060e-01 3.496302e+00 4.062415e+00 -1.175202e+00 -9.734841e-01 5.683997e+00 -6.510062e-01 -3.684837e+00 -3.266007e+00 -6.412969e-01 6.924336e-02 -7.287140e-01 5.206615e-01 2.041310e+00 9.386672e-01 -6.262305e-01 -1.117835e+00 -4.018128e-01 3.294429e+00 -5.533193e-01 4.101559e-01 1.699063e+00 8.716200e-01 4.606260e-01 6.790585e-03 8.771539e-01 2.151476e-01 -5.379480e-01 -7.556210e-01 -9.715515e-02 1.741347e-01 -9.055958e-01
<VARIANCE> 39
 4.960891e+00 1.530630e+01 8.553747e+00 7.194736e+00 9.201000e+00 1.825548e+01 2.159890e+01 1.035359e+01 1.018888e+01 1.491607e+01 1.507394e+01 1.616709e+01 7.398992e+00 5.779437e-01 2.052049e+00 2.657469e+00 2.503677e+00 2.022420e+00 3.512806e+00 1.815316e+00 3.021466e+00 2.653337e+00 3.104032e+00 1.302505e+00 1.806326e+00 1.325578e+00 1.238863e-01 1.527607e-01 2.776617e-01 3.425407e-01 3.518733e-01 4.780104e-01 3.183895e-01 2.812375e-01 4.564061e-01 2.468592e-01 1.699635e-01 2.585714e-01 6.973567e-02
<GCONST> 9.366917e+01
<MIXTURE> 25 3.459163e-02
<MEAN> 39
 4.688541e-01 -1.023798e+01 -8.645393e+00 -8.018281e-01 5.379295e+00 1.730964e+00 3.049354e+00 5.705855e+00 -4.170110e+00 -3.475599e+00 -4.578373e+00 -5.263138e-01 1.010397e+01 -1.139189e+00 -5.189852e-01 1.897405e+00 1.196209e-01 -7.574654e-01 8.476105e-01 1.166325e+00 -1.786517e+00 -1.498210e+00 -4.020385e-01 3.816176e-01 -5.126519e-01 7.820316e-01 1.743620e-01 1.159244e+00 8.665112e-01 8.746530e-02 -7.379236e-01 -1.313844e-01 -2.662857e-01 -9.356908e-01 6.808711e-01 2.942278e-01 4.285749e-01 -8.371478e-02 -8.725556e-01
<VARIANCE> 39
 8.538026e+00 1.094829e+01 1.226592e+01 1.234114e+01 9.988880e+00 1.279211e+01 1.633192e+01 2.987750e+01 2.180068e+01 1.363857e+01 2.050826e+01 8.478047e+00 2.721994e+00 5.651910e-01 7.731838e-01 9.267570e-01 5.073059e-01 1.532011e+00 1.393815e+00 1.381911e+00 2.085557e+00 2.107955e+00 3.495880e+00 2.563457e+00 1.462539e+00 3.083218e-01 1.121503e-01 1.127085e-01 3.317727e-01 2.891519e-01 2.420288e-01 2.413343e-01 5.481117e-01 4.718172e-01 3.255719e-01 3.736680e-01 5.311927e-01 3.039432e-01 3.037153e-01
<GCONST> 9.047709e+01
<MIXTURE> 26 3.460432e-02
<MEAN> 39
 4.006084e+00 -2.316368e+00 -6.230461e+00 -1.176486e-01 4.553787e-01 -9.625200e-02 -1.009755e+00 4.335955e+00 2.820955e+00 -4.523002e-01 -2.501262e+00 2.160489e+00 3.661632e+00 5.662526e-02 -4.202678e+00 -3.722945e+00 -1.925056e+00 -1.507270e+00 -6.995291e-01 2.567747e+00 2.005628e+00 -1.328620e-01 -1.198517e+00 -1.881040e-01 5.739947e-01 4.267159e+00 -4.636024e-01 5.316962e-02 5.042977e-01 4.913599e-01 5.633496e-01 2.738913e-01 3.299084e-01 -4.327532e-01 -7.294089e-01 -5.912494e-02 4.428127e-01 -1.297459e-01 -3.807632e-01
<VARIANCE> 39
 5.736076e+00 1.039608e+01 1.099228e+01 1.075132e+01 1.266642e+01 2.108442e+01 1.092977e+01 1.253257e+01 1.815879e+01 2.208098e+01 1.612602e+01 2.691504e+01 1.013296e+01 1.268211e+00 2.188435e+00 2.414068e+00 3.921896e+00 4.784197e+00 4.129145e+00 2.770000e+00 3.105944e+00 3.795847e+00 2.484299e+00 3.562168e+00 2.252794e+00 1.376477e+00 2.160268e-01 3.962273e-01 3.868396e-01 6.908858e-01 2.559325e-01 5.951391e-01 2.693299e-01 4.881460e-01 4.394272e-01 4.084474e-01 3.256109e-01 3.076184e-01 2.706721e-01
<GCONST> 1.054640e+02
<MIXTURE> 27 2.144325e-02
<MEAN> 39
 5.439727e+00 5.111158e+00 -3.404563e+00 -1.806150e+00 2.829814e+00 -1.869146e+00 -8.374306e+00 -4.121796e+00 1.187087e+00 2.866828e+00 1.754887e-01 -6.694254e-01 -7.713252e-01 7.237200e-01 -3.408456e+00 -5.084858e+00 -2.300391e+00 -1.102612e+00 -1.401685e+00 -1.508635e+00 6.233139e-01 1.336034e+00 1.087334e+00 -7.858936e-02 1.232322e-01 4.342870e+00 -5.007565e-01 -4.015197e-01 1.097036e-01 2.628193e-01 1.412173e-01 3.489964e-01 6.991476e-01 1.038640e+00 -1.043467e-01 -5.507108e-01 -5.027853e-01 -2.021759e-01 -2.153618e-01
<VARIANCE> 39
 5.255337e+00 2.001966e+01 1.007154e+01 7.668107e+00 8.751842e+00 9.161810e+00 8.314754e+00 1.075252e+01 1.455668e+01 1.387613e+01 1.160745e+01 6.414337e+00 1.720274e+01 3.732514e-01 1.810370e+00 1.387029e+00 1.255198e+00 3.133803e+00 1.234784e+00 1.465044e+00 2.014820e+00 1.988413e+00 2.839450e+00 8.783963e-01 7.763507e-01 1.309784e+00 2.199728e-01 6.132546e-01 2.162512e-01 3.294890e-01 2.088117e-01 3.924600e-01 1.953516e-01 2.377325e-01 2.247571e-01 2.555541e-01 2.095222e-01 1.618416e-01 2.785784e-01
<GCONST> 8.850182e+01
<MIXTURE> 28 3.231224e-02
<MEAN> 39
 4.544733e+00 7.644531e+00 2.067499e+00 5.223540e+00 6.606789e+00 3.848557e+00 -4.984378e-01 -4.999170e-01 -3.197569e+00 3.445129e+00 -1.735240e-01 5.336916e-01 -1.003477e+01 1.712983e-01 -2.354234e+00 -2.633282e+00 -2.299263e+00 -1.420847e+00 1.949169e-01 -6.874557e-01 4.160583e-01 1.288472e+00 8.097357e-01 3.096413e-01 -3.258343e-01 2.879037e+00 -3.804981e-01 -9.710242e-01 -6.758918e-01 -6.558942e-01 -7.321193e-01 -3.121771e-01 -1.261063e-01 1.321281e-01 9.039512e-01 -1.464982e-01 8.404577e-02 -1.248229e-01 1.201729e+00
<VARIANCE> 39
 3.761072e+00 1.654714e+01 2.054659e+01 1.651248e+01 3.915307e+01 1.962203e+01 2.800220e+01 4.495185e+01 2.497017e+01 1.772400e+01 2.570100e+01 4.420518e+01 1.434513e+01 8.290182e-01 1.131350e+00 4.197437e+00 7.662942e-01 3.883482e+00 2.165372e+00 2.415795e+00 3.189182e+00 1.902946e+00 2.857935e+00 1.489872e+00 1.539640e+00 2.327385e+00 1.199452e-01 4.614615e-01 5.291808e-01 2.521999e-01 5.334007e-01 4.656607e-01 5.154238e-01 3.099725e-01 9.420964e-01 3.969072e-01 2.884158e-01 6.195453e-01 3.602634e-01
<GCONST> 1.079905e+02
<MIXTURE> 29 2.833561e-02
<MEAN> 39
 3.542029e+00 -4.774231e+00 -1.394779e+01 7.267287e-01 1.618352e+00 -6.444444e+00 -3.343214e+00 8.009098e+00 6.721395e+00 -3.643213e+00 -4.602747e+00 -8.819693e-01 8.688267e+00 -7.123393e-01 -2.197948e+00 2.649246e-01 6.468430e-01 -4.566858e-01 -6.299651e-01 2.235366e+00 2.094863e+00 -1.194632e+00 -1.985314e+00 -4.593623e-01 -4.627899e-02 1.567767e+00 -4.578504e-01 6.582581e-01 1.895824e+00 7.832435e-02 -6.596400e-02 1.087450e+00 7.094895e-01 -1.115814e+00 -1.240711e+00 5.105389e-01 7.179717e-01 -4.010988e-02 -1.305683e+00
<VARIANCE> 39
 7.286750e+00 1.246039e+01 7.159736e+00 3.355049e+00 1.528084e+01 2.367382e+01 1.735490e+01 1.683490e+01 1.973214e+01 2.315118e+01 2.333873e+01 7.247978e+00 1.350952e+01 6.429344e-01 2.622598e+00 3.393722e+00 2.426967e-01 1.030379e+00 1.644080e+00 3.599437e+00 1.355955e+00 2.741976e+00 1.559613e+00 6.193830e-01 2.129056e+00 2.322169e+00 2.643043e-01 2.664675e-01 6.088832e-01 8.454712e-02 1.554556e-01 2.901379e-01 3.840495e-01 6.098168e-01 3.102750e-01 8.483400e-01 4.064606e-01 1.162658e-01 1.019069e+00
<GCONST> 9.526653e+01
<MIXTURE> 30 3.044576e-02
<MEAN> 39
 1.492629e+00 -8.494308e+00 -5.045643e+00 4.044105e+00 3.171160e-01 -3.611178e+00 4.960686e+00 4.390095e+00 -2.613913e+00 -4.435345e+00 -4.009018e+00 1.790695e+00 6.815480e+00 -5.095694e-01 2.884450e+00 3.625141e+00 7.572009e-01 -9.935827e-01 -8.932624e-01 2.748021e-01 -2.317054e+00 -7.761653e-01 1.694373e-01 1.264430e+00 -2.022312e-01 -1.130188e+00 -8.350068e-02 1.310008e+00 3.411959e-01 -4.379131e-01 1.365111e-01 1.884711e-01 -7.114078e-01 -5.080723e-01 3.827598e-01 2.869923e-01 3.619437e-01 -3.474240e-01 -4.799908e-01
<VARIANCE> 39
 4.095940e+00 6.793930e+00 1.346763e+01 9.593967e+00 1.570690e+01 7.948311e+00 1.213172e+01 3.554339e+01 1.992203e+01 1.332824e+01 1.136405e+01 7.057558e+00 3.487933e+00 6.624763e-01 2.374671e+00 1.563051e+00 1.088783e+00 2.821433e+00 2.568386e+00 2.169045e+00 3.432803e+00 1.046541e+00 1.841411e+00 1.713398e+00 1.307820e+00 5.124382e-01 4.513072e-02 1.963995e-01 2.515222e-01 2.890093e-01 2.929302e-01 2.012613e-01 1.336231e-01 5.343997e-01 4.871314e-01 2.456765e-01 1.343954e-01 1.712571e-01 2.512121e-02
<GCONST> 8.534494e+01
<MIXTURE> 31 2.321068e-02
<MEAN> 39
 1.225717e+00 6.166449e+00 8.671553e+00 4.839218e+00 5.514818e+00 6.428208e+00 -4.390496e+00 -1.859260e+00 1.250875e+00 5.364990e-01 8.040864e-01 -2.724494e+00 -7.455147e+00 7.473128e-01 -2.864717e+00 -3.907369e+00 -1.321980e+00 -1.250559e+00 -1.357591e+00 -5.896456e-01 -1.315430e-01 8.868949e-01 1.032996e+00 -2.271632e-01 4.204343e-01 2.926538e+00 2.684870e-01 -6.302167e-01 -1.658819e+00 -5.408142e-01 -1.210761e-01 -5.616487e-01 1.265242e-01 5.566856e-01 9.088137e-02 -1.749694e-01 -4.825037e-01 1.627516e-01 4.624158e-01
<VARIANCE> 39
 7.289179e+00 3.599360e+01 2.077793e+01 1.449856e+01 2.126772e+01 5.851512e+00 3.205532e+01 1.725905e+01 1.907627e+01 1.673464e+01 5.438321e+00 1.369302e+01 2.293921e+01 1.656287e+00 3.424579e+00 4.611236e+00 3.362446e+00 7.196527e-01 2.720904e+00 4.445803e+00 1.158033e+00 2.079617e+00 1.185082e+00 6.178519e-01 1.489848e+00 2.955914e+00 5.307714e-01 8.898965e-01 4.295533e-01 6.602652e-01 5.147184e-01 1.947626e-01 1.074691e+00 2.303976e-01 5.336226e-01 3.732156e-01 1.640682e-01 3.335282e-01 7.910941e-01
<GCONST> 1.055343e+02
<MIXTURE> 32 1.815742e-02
<MEAN> 39
 -3.644586e-01 -5.434710e+00 -5.888511e+00 3.824872e+00 -2.431933e-01 -4.524292e+00 4.924053e+00 1.809624e+00 1.969900e+00 -8.108401e+00 3.395234e+00 1.159828e-01 1.050914e+01 -7.198116e-01 1.358899e+00 3.993212e+00 1.341080e+00 -2.248127e-01 -9.358083e-01 -7.295942e-01 -2.070722e-01 -1.421865e+00 6.369825e-01 1.526942e-01 1.269969e-01 -5.685297e-01 2.324350e-01 7.285839e-01 4.905332e-01 -3.818118e-01 1.810974e-01 -3.134445e-02 -1.008687e+00 -5.701454e-02 -8.956657e-02 1.031660e+00 -7.116308e-01 -2.847226e-01 -3.604726e-01
<VARIANCE> 39
 7.418477e+00 3.126786e+00 2.868424e+01 9.092706e+00 4.514950e+00 3.075253e+01 4.009135e+01 2.316488e+01 1.857418e+01 2.292576e+01 1.068075e+01 7.456195e+00 1.575966e+01 1.730868e-01 2.345797e+00 2.662663e+00 1.554732e+00 1.286002e+00 2.653165e+00 3.156511e+00 2.902360e+00 3.101060e+00 2.039478e+00 2.084554e+00 7.450858e-01 6.332934e-01 1.618574e-01 8.816211e-02 8.699848e-01 3.269303e-01 3.266988e-01 3.363311e-01 8.990523e-01 2.686706e-01 3.854405e-01 5.745109e-01 1.342256e-01 1.674325e-01 6.384026e-02
<GCONST> 9.394029e+01
<STATE> 4
<NUMMIXES> 32
<MIXTURE> 1 2.842085e-02
<MEAN> 39
 -2.386653e+00 -8.667130e+00 -2.845771e+00 8.283398e-01 -3.291981e+00 6.738639e+00 2.977688e+00 -5.101360e+00 -6.205246e-01 5.249169e+00 4.421144e+00 2.010104e+00 1.087970e+01 5.225844e-01 3.212772e+00 3.168069e+00 -1.426772e+00 -1.702193e+00 1.181595e-01 -1.511727e+00 -4.428381e-01 1.079277e+00 -2.925713e-03 -1.582851e+00 -3.429326e-01 -1.354257e+00 3.283355e-01 1.026150e+00 2.830640e-01 -7.088211e-02 4.032261e-01 -8.482446e-01 1.224684e-01 1.105756e+00 1.287393e-01 -5.408698e-01 6.785110e-02 3.703673e-01 -5.480941e-01
<VARIANCE> 39
 1.094487e+01 3.084650e+01 1.410136e+01 2.523095e+01 3.318107e+01 7.252209e+01 3.207698e+01 3.593576e+01 2.715529e+01 2.303082e+01 3.261141e+01 5.098297e+01 1.135741e+01 8.248921e-01 2.991471e+00 8.489349e-01 1.989920e+00 4.800566e+00 3.619602e+00 2.693666e+00 3.500121e+00 2.874200e+00 3.494077e+00 2.367536e+00 3.615407e+00 1.029372e+00 1.203876e-01 4.289025e-01 2.341539e-01 4.267011e-01 6.226394e-01 1.106525e+00 4.360779e-01 5.997068e-01 4.470295e-01 4.174618e-01 7.515268e-01 7.067879e-01 8.183385e-02
<GCONST> 1.137076e+02
<MIXTURE> 2 3.149672e-02
<MEAN> 39
 3.513850e+00 1.068020e+01 7.978957e+00 -3.183280e+00 -4.594618e+00 3.909882e+00 2.521891e-01 2.398780e+00 7.977756e+00 1.805162e-01 3.667474e+00 3.798179e+00 -4.297659e-01 3.556828e-02 5.613319e-01 3.475916e-01 5.538983e-01 7.406698e-01 -2.657958e-01 -6.314626e-01 6.607753e-01 2.173594e-01 -5.475295e-01 -1.735210e-01 1.105013e-01 -7.525165e-01 -3.621205e-01 -1.348420e+00 -7.272096e-01 7.961685e-02 6.586192e-01 1.312348e-01 6.251451e-02 -4.357992e-01 -8.709360e-01 3.056515e-01 -2.975851e-01 -3.072671e-01 7.157571e-01
<VARIANCE> 39
 7.136665e+00 6.452471e+00 1.361791e+01 5.297326e+01 3.333797e+01 3.673894e+01 3.153841e+01 4.781478e+01 2.392585e+01 3.274533e+01 8.157351e+01 3.274916e+01 7.894393e+00 3.289003e-01 3.344259e+00 1.924101e+00 1.958275e+00 2.945473e+00 2.698474e+00 1.790806e+00 3.236307e+00 3.852231e+00 1.448779e+00 2.429784e+00 7.654495e-01 6.578984e-01 9.103956e-02 5.853102e-01 2.765866e-01 9.053211e-01 2.297929e-01 5.093239e-01 6.799273e-01 1.022692e+00 3.415193e-01 4.385517e-01 1.063436e+00 5.447967e-01 1.129763e-01
<GCONST> 1.088600e+02
<MIXTURE> 3 2.092269e-02
<MEAN> 39
 3.804945e+00 8.473253e+00 4.737391e+00 -5.543763e+00 -2.568337e-01 1.712409e+00 1.149249e+00 6.326326e+00 -7.885174e-01 8.162341e+00 1.071298e+00 -4.117961e+00 -5.048554e-01 7.891955e-01 4.144280e-01 -1.245851e-01 1.222299e+00 1.899017e-01 -7.286297e-01 4.757507e-01 7.638153e-01 -1.396714e-01 1.367631e-01 -1.316954e-01 3.523953e-01 -7.744510e-01 -1.295761e-01 -2.955237e-01 8.580914e-02 3.712205e-01 -7.230119e-02 -2.225851e-01 -1.286250e-02 -5.150345e-01 3.077301e-01 -3.997507e-01 2.136272e-01 3.640305e-01 8.227238e-02
<VARIANCE> 39
 5.105261e+00 2.043599e+00 1.438337e+01 1.651761e+01 2.483254e+01 7.517114e+00 1.255292e+01 4.090372e+01 1.471336e+01 3.589952e+01 1.831678e+01 2.897183e+01 2.721994e+00 6.872340e-02 3.123598e-01 2.600711e-01 9.921149e-01 1.060337e+00 1.706367e+00 9.335583e-01 1.129710e+00 1.905891e+00 1.721648e+00 1.216148e+00 1.350159e+00 1.306386e-01 3.741212e-02 7.118760e-02 1.187370e-01 1.121807e-01 2.001676e-01 4.427324e-01 2.217302e-01 1.420807e-01 1.902576e-01 1.651329e-01 3.198983e-01 2.481245e-01 4.468850e-02
<GCONST> 7.437747e+01
<MIXTURE> 4 2.592689e-02
<MEAN> 39
 -1.585074e+00 -3.761498e+00 4.626176e-01 -2.809741e+00 -1.783516e+00 8.300658e+00 5.884803e-02 -3.290379e+00 1.062020e+00 -1.061700e+00 -1.141183e+00 7.318766e-02 8.279976e+00 5.291361e-02 -4.057937e+00 -2.154155e+00 -3.398053e-01 -1.317247e-01 2.645126e+00 -4.230537e-02 1.254596e+00 2.592352e-01 9.513962e-01 4.616160e-01 1.087137e+00 2.288799e+00 -1.752550e-01 4.164503e-01 2.955050e-01 2.532189e-01 -1.863165e-01 -7.653590e-01 7.821591e-01 6.765195e-02 -8.063798e-02 -3.012372e-01 3.738594e-01 -1.550797e-01 9.142193e-02
<VARIANCE> 39
 1.248038e+01 9.529414e+00 3.094311e+01 1.671742e+01 1.434334e+01 3.553949e+01 2.282962e+01 1.704762e+01 1.620368e+01 1.412598e+01 1.042015e+01 5.081560e+00 2.975033e+01 7.025997e-01 2.255573e+00 2.281157e+00 1.087577e+00 3.037062e+00 7.197511e+00 5.115540e+00 3.556786e+00 5.819895e+00 3.072447e+00 1.917113e+00 1.088572e+00 7.652676e-01 1.319960e-01 2.247961e-01 3.858602e-01 3.454591e-01 3.084593e-01 7.664833e-01 3.621863e-01 6.418622e-01 4.604064e-01 2.836150e-01 2.597084e-01 1.740651e-01 1.243863e-01
<GCONST> 1.027541e+02
<MIXTURE> 5 2.842004e-02
<MEAN> 39
 5.539383e-01 3.943596e+00 8.008511e+00 -7.322813e-01 -6.998174e+00 1.180883e+00 4.750377e+00 -4.055390e-01 1.175120e-01 5.556746e+00 3.775552e+00 7.857813e-01 4.498073e+00 6.148108e-01 3.399409e+00 2.139682e+00 -8.422723e-01 -5.062048e-01 9.066653e-01 -7.007495e-01 9.537899e-01 5.228782e-01 5.060680e-01 -2.450488e-02 -4.170537e-01 -1.722173e+00 -7.966947e-02 -6.757282e-01 -9.279238e-01 -1.423400e-02 1.112797e+00 1.521977e-01 -2.350041e-01 3.044472e-01 1.255636e-01 -4.328499e-01 2.474569e-01 3.985725e-01 2.055895e-01
<VARIANCE> 39
 4.656447e+00 1.497550e+01 1.353943e+01 2.482270e+01 3.853722e+01 3.481865e+01 1.519215e+01 1.427221e+01 3.900640e+01 1.362610e+01 2.204451e+01 2.259356e+01 9.212570e+00 5.691792e-01 2.514636e+00 2.082652e+00 2.515283e+00 4.276410e+00 4.349254e+00 3.329631e+00 3.228952e+00 4.294325e+00 1.378910e+00 1.534945e+00 2.695279e+00 5.944349e-01 6.711262e-02 1.648390e-01 2.725605e-01 3.986876e-01 3.641452e-01 5.533963e-01 3.066152e-01 2.701095e-01 5.202206e-01 2.120976e-01 3.678630e-01 2.975175e-01 4.992402e-02
<GCONST> 1.007879e+02
<MIXTURE> 6 3.985560e-02
<MEAN> 39
 -6.763517e-01 1.061649e+01 2.806991e+00 2.928251e+00 -3.204140e+00 -5.389749e+00 3.073489e+00 -8.461108e+00 3.150478e+00 -7.109017e+00 6.787673e-01 -3.063784e+00 4.331954e+00 6.145386e-02 -1.136339e+00 -2.533514e-01 -9.542527e-01 4.479172e-01 2.470651e+00 -1.587661e+00 4.506854e-01 1.115314e-01 6.436567e-01 -1.017179e+00 -1.190179e-01 -2.238227e-01 -3.944497e-03 -1.802935e+00 -4.449607e-01 -3.653631e-01 -2.911871e-01 1.094270e+00 9.287117e-02 9.113222e-01 -3.987204e-01 6.531894e-01 -8.099274e-02 2.128919e-01 8.947545e-01
<VARIANCE> 39
 1.090428e+01 1.646229e+01 2.671977e+01 2.622917e+01 3.734065e+01 4.360418e+01 6.535278e+01 3.590725e+01 4.500625e+01 3.631034e+01 3.155261e+01 2.740039e+01 3.659707e+01 9.181340e-01 5.198602e+00 2.401501e+00 2.511628e+00 3.589412e+00 5.457131e+00 3.445992e+00 4.087446e+00 3.155430e+00 2.318411e+00 1.387908e+00 1.826919e+00 1.287225e+00 5.343040e-02 2.973044e-01 3.354009e-01 5.310851e-01 7.010535e-01 8.888514e-01 1.020694e+00 5.113070e-01 9.751605e-01 6.901289e-01 6.155155e-01 6.730931e-01 1.148767e-01
<GCONST> 1.180577e+02
<MIXTURE> 7 3.590887e-02
<MEAN> 39
 -1.643310e+00 6.524550e+00 5.894120e+00 5.323903e+00 2.997520e+00 -8.424517e+00 8.816968e-01 4.015225e+00 2.370174e-01 -7.185614e-01 1.572669e+00 -8.540215e-02 6.043152e+00 -2.291582e-02 1.063030e+00 9.785084e-01 -8.922956e-02 2.682098e-01 -3.754156e-01 2.648684e-01 -1.142912e-01 2.523246e-01 -2.474157e-01 3.408347e-01 -3.152455e-01 -3.470469e-01 1.493539e-01 -5.406337e-01 -5.410423e-01 -2.048948e-01 -2.296740e-01 7.621381e-01 3.617710e-01 -6.536108e-01 -1.034596e-01 1.247079e-01 5.598302e-02 6.256549e-02 3.192907e-02
<VARIANCE> 39
 1.126327e+01 2.579790e+01 7.959072e+00 1.563241e+01 8.579360e+00 2.724271e+01 1.332223e+01 1.576119e+01 9.068119e+00 5.458869e+00 3.358541e+01 1.627123e+01 1.550757e+01 3.023718e-01 1.365033e+00 7.113886e-01 1.423342e+00 1.177470e+00 2.039794e+00 1.114289e+00 2.657207e+00 6.574235e-01 1.447667e+00 1.586354e+00 4.915356e-01 1.306386e-01 4.978325e-02 2.898594e-01 2.653707e-01 2.971078e-01 2.451200e-01 6.695922e-01 2.435394e-01 4.460230e-01 1.773221e-01 2.000014e-01 3.554187e-01 2.392820e-01 4.459805e-02
<GCONST> 8.495680e+01
<MIXTURE> 8 3.422537e-02
<MEAN> 39
 -2.432482e-01 -1.257919e+01 -7.277077e+00 3.608449e+00 8.502761e-01 5.549132e+00 8.597859e+00 1.579293e+00 -6.465938e+00 -7.362153e-02 4.662949e+00 1.775344e+00 9.659344e+00 -2.379571e-01 1.126408e+00 2.153900e+00 -2.632870e-01 -5.340265e-01 4.276097e-01 -4.529994e-01 -1.446770e+00 6.358541e-02 8.753616e-01 -3.487571e-01 -7.983065e-01 -2.832133e-01 1.966834e-01 1.506309e+00 6.726219e-01 -2.661718e-01 -1.360566e-01 -8.487405e-01 -7.036641e-01 2.193188e-01 1.165703e+00 2.438147e-02 -6.822497e-01 8.539954e-02 -5.860958e-01
<VARIANCE> 39
 2.705632e+00 1.704119e+01 1.265770e+01 1.051963e+01 1.681059e+01 3.414943e+01 1.957875e+01 2.303917e+01 1.673889e+01 1.425492e+01 2.738132e+01 2.562790e+01 7.799343e+00 3.377512e-01 1.769004e+00 2.854131e+00 1.690138e+00 3.477202e+00 3.838351e+00 1.525635e+00 3.137264e+00 2.814696e+00 2.552654e+00 2.454795e+00 2.306282e+00 4.010866e-01 1.236367e-01 2.956884e-01 3.484955e-01 4.146176e-01 4.053846e-01 5.836617e-01 4.156266e-01 3.904099e-01 2.129157e-01 2.046100e-01 3.094040e-01 4.577126e-01 6.809222e-02
<GCONST> 9.867587e+01
<MIXTURE> 9 2.541219e-02
<MEAN> 39
 -4.849526e+00 1.029601e+01 6.498586e+00 1.057100e+00 -4.695502e+00 -7.965776e+00 1.209982e+01 -5.995185e+00 6.533079e-01 -5.853319e+00 3.038391e+00 -1.627481e+00 5.160568e+00 -1.328285e-01 1.367957e+00 1.543368e-01 -2.121493e-01 -4.214626e-01 5.999238e-01 9.306967e-01 -7.465883e-01 7.566254e-01 -2.964670e-01 6.068010e-01 1.199000e-01 -6.861012e-01 4.550162e-01 -1.133099e+00 -4.449196e-01 1.407209e-01 5.252971e-01 7.533314e-01 -7.259851e-01 5.988532e-01 -2.860372e-02 3.053770e-01 -5.442364e-01 5.319112e-02 3.044668e-02
<VARIANCE> 39
 4.600100e+00 1.291856e+01 2.797931e+01 3.056581e+01 4.424046e+01 2.547657e+01 3.151600e+01 3.541952e+01 4.105556e+01 2.430802e+01 1.918470e+01 9.283296e+00 1.580280e+01 5.516856e-01 2.195612e+00 1.374583e+00 1.258253e+00 1.822330e+00 1.243563e+00 1.949672e+00 1.677726e+00 2.126080e+00 1.163919e+00 1.393831e+00 8.476700e-01 4.356356e-01 4.787440e-02 3.738599e-01 5.027262e-01 4.534035e-01 5.035638e-01 2.601374e-01 3.842654e-01 3.296193e-01 6.652346e-01 2.116142e-01 2.561905e-01 2.329643e-01 1.775284e-01
<GCONST> 9.828290e+01
<MIXTURE> 10 2.341357e-02
<MEAN> 39
 -1.875579e-02 8.463711e+00 6.096137e+00 4.254930e+00 1.412714e+00 -7.896035e-01 -4.163444e-01 -7.405247e+00 -2.420988e+00 -4.976798e+00 -6.008025e-01 -1.230167e+00 -1.241642e+00 -2.179393e-01 -3.856338e+00 -1.633487e+00 -1.153571e+00 -2.443358e+00 2.318339e+00 1.060264e+00 1.575594e+00 9.695377e-01 1.247385e+00 2.946088e-01 -2.339117e-01 1.908538e+00 -9.246726e-02 -1.402476e+00 -6.852836e-01 -4.031328e-01 -5.814664e-01 1.432134e-01 7.911673e-01 6.934791e-01 4.411876e-01 3.486446e-01 -2.697257e-03 9.957615e-02 1.136027e+00
<VARIANCE> 39
 4.036930e+00 1.632410e+01 2.148308e+01 1.953176e+01 2.340426e+01 1.925705e+01 2.869382e+01 2.132929e+01 3.154474e+01 1.340890e+01 2.857607e+01 8.056845e+00 1.143052e+01 8.506833e-01 2.029042e+00 3.768830e+00 2.314394e+00 4.877516e+00 2.874095e+00 6.346141e+00 2.006203e+00 2.465624e+00 3.751980e+00 2.854593e+00 2.609244e+00 1.388651e+00 7.082678e-02 1.970658e-01 4.515814e-01 4.349970e-01 7.830071e-01 5.547845e-01 3.733242e-01 5.286810e-01 6.298819e-01 3.178468e-01 4.158362e-01 8.722928e-02 6.141115e-02
<GCONST> 1.047413e+02
<MIXTURE> 11 3.854244e-02
<MEAN> 39
 7.757464e-01 9.604722e+00 5.287073e+00 1.370406e+00 5.140916e+00 -6.449375e+00 8.312034e-01 -3.441046e+00 5.041938e+00 -7.505206e-01 -4.215081e+00 -1.505259e+00 1.913283e+00 7.177573e-02 9.558608e-01 -2.077331e-02 -3.257210e-01 8.216207e-01 -1.527570e-01 -1.487497e-01 -3.155630e-01 1.770978e-01 3.277040e-01 8.749229e-02 1.894243e-01 -6.370779e-01 -1.506104e-01 -1.079085e+00 -4.972651e-01 9.382314e-02 -8.980272e-01 7.852267e-01 4.400105e-01 3.517204e-01 -6.862373e-01 -5.413539e-02 5.563607e-01 1.204103e-01 5.066293e-01
<VARIANCE> 39
 5.867846e+00 1.567616e+01 3.862621e+01 2.221494e+01 1.495228e+01 2.070733e+01 1.400860e+01 2.778121e+01 1.316988e+01 1.750736e+01 2.825712e+01 1.342685e+01 1.084852e+01 2.828495e-01 8.229501e-01 1.351916e+00 2.265827e+00 2.292310e+00 3.122206e+00 1.456412e+00 1.335686e+00 2.905674e+00 1.006147e+00 1.613356e+00 1.498570e+00 2.181357e-01 8.741774e-02 3.817969e-01 6.976362e-01 5.348381e-01 5.534872e-01 7.600976e-01 6.562728e-01 3.625011e-01 4.228116e-01 2.961402e-01 1.777439e-01 3.293332e-01 8.318361e-02
<GCONST> 9.705432e+01
<MIXTURE> 12 2.188588e-02
<MEAN> 39
 4.064847e-01 -4.535749e-02 6.139230e-01 -4.406275e+00 5.613625e+00 4.829574e+00 -3.831695e-01 7.639202e-01 -9.652007e-01 1.272140e+00 -1.562469e+00 1.729864e-01 5.889669e+00 -1.531848e+00 -3.766105e+00 -2.020247e+00 9.819827e-02 2.104166e+00 3.964848e-01 -1.756018e+00 -9.223989e-01 -9.924707e-01 -1.516734e+00 -2.395038e+00 -1.908752e+00 3.294557e+00 -9.340399e-02 -3.505838e-04 5.657306e-01 6.685849e-01 -5.747090e-01 -1.120631e-01 -5.173785e-01 2.106660e-01 3.951978e-01 -1.779330e-01 -9.723495e-02 -4.742165e-01 -1.354888e-01
<VARIANCE> 39
 1.032967e+01 2.417746e+01 1.585422e+01 2.585351e+01 2.405430e+01 3.208627e+01 3.457617e+01 1.502425e+01 3.832155e+01 1.729601e+01 3.625710e+01 2.614854e+01 7.720094e+00 8.999960e-01 3.795030e+00 2.178141e+00 6.546004e+00 3.206928e+00 3.761519e+00 3.002573e+00 3.738667e+00 1.859027e+00 2.217419e+00 6.518769e+00 4.470826e+00 1.050991e+00 2.654911e-01 2.770534e-01 2.822643e-01 9.480332e-01 5.103024e-01 8.403718e-01 7.527662e-01 5.862840e-01 1.083014e+00 2.801070e-01 9.103817e-01 7.996646e-01 2.665366e-01
<GCONST> 1.167171e+02
<MIXTURE> 13 4.565902e-02
<MEAN> 39
 -3.006435e-01 1.801143e+00 4.249391e+00 5.436859e+00 1.487161e+00 -6.301600e+00 2.423794e+00 8.351726e-01 -3.408110e-01 -1.193549e+00 1.730831e-01 2.776992e-01 5.590918e+00 -7.201707e-01 2.587695e+00 3.225695e+00 4.149573e-01 2.768283e-01 -1.366197e+00 -8.109745e-01 -1.060948e+00 -1.307163e-01 6.542634e-01 3.230982e-01 6.358539e-02 -9.739708e-01 1.159200e-02 -3.419866e-01 -5.957732e-01 -4.023386e-01 -1.033684e-01 3.670843e-01 1.316074e-01 2.587695e-01 8.437201e-02 -1.345254e-01 -1.832817e-01 -9.399602e-02 1.790822e-01
<VARIANCE> 39
 4.961339e+00 7.298907e+00 2.096232e+01 2.137745e+01 2.398292e+01 1.702202e+01 4.410235e+01 1.598398e+01 3.007567e+01 2.582363e+01 3.399530e+01 8.952995e+00 1.299732e+01 6.315063e-01 1.726215e+00 2.571280e+00 1.832514e+00 9.054697e-01 3.248061e+00 5.587302e+00 2.475574e+00 2.480450e+00 3.040684e+00 3.086242e+00 1.542649e+00 3.203276e-01 6.999228e-02 1.160128e-01 3.620108e-01 2.591394e-01 1.821689e-01 2.608670e-01 8.178367e-01 3.787812e-01 4.161193e-01 5.226566e-01 5.708703e-01 1.713885e-01 3.626930e-02
<GCONST> 9.809908e+01
<MIXTURE> 14 2.698555e-02
<MEAN> 39
 -1.717205e+00 8.551274e+00 8.070855e+00 1.994433e+00 -9.249355e-01 -3.478573e+00 6.348667e+00 -8.996243e+00 1.756806e-01 -1.632861e+00 1.787270e+00 7.383338e-01 2.096544e+00 3.053855e-01 2.054767e+00 9.205676e-01 6.780640e-01 1.879709e-01 -4.703883e-01 1.773599e-01 -1.744172e+00 -2.398061e-01 -3.909751e-01 5.215818e-01 5.965334e-01 -1.446615e+00 1.031912e-01 -1.316259e+00 -9.588101e-01 -3.154186e-01 -2.982335e-02 3.399906e-01 -1.756188e-01 1.219119e+00 6.947455e-02 1.250556e-01 -2.743851e-01 -1.231419e-01 5.786508e-01
<VARIANCE> 39
 4.424867e+00 6.361815e+00 1.619168e+01 2.251997e+01 2.573829e+01 1.709992e+01 1.845540e+01 1.369976e+01 2.640079e+01 1.052680e+01 2.398625e+01 1.035801e+01 4.745070e+00 4.840475e-01 2.320325e+00 3.099536e+00 2.486258e+00 2.764602e+00 3.213770e+00 1.014288e+00 3.319551e+00 3.179576e+00 1.260127e+00 2.108378e+00 3.536806e-01 3.356718e-01 7.283481e-02 8.405321e-02 3.219126e-01 2.232863e-01 4.793415e-01 3.172342e-01 3.109908e-01 2.476197e-01 2.902290e-01 2.446705e-01 4.374322e-01 2.034253e-01 3.828945e-02
<GCONST> 9.028981e+01
<MIXTURE> 15 4.004931e-02
<MEAN> 39
 2.955042e+00 9.000110e+00 8.887403e+00 -4.101597e-01 -2.990377e+00 5.323235e-01 -3.161942e-02 5.874919e-01 1.888591e+00 2.288109e+00 4.486410e-01 1.447636e+00 -1.919881e+00 -7.550627e-01 -2.978929e+00 -2.036822e+00 -8.123341e-01 2.064317e+00 1.909956e+00 -1.262963e+00 -7.254106e-01 -8.468463e-01 -5.565681e-01 -3.458513e-01 -3.495706e-01 1.736591e+00 -4.938320e-01 -1.291639e+00 -6.228537e-01 -3.147082e-01 5.142218e-01 5.338296e-01 -1.289806e-01 -7.067200e-03 -1.397766e-01 -4.069591e-01 -2.499845e-01 -2.860741e-01 1.212353e+00
<VARIANCE> 39
 6.490203e+00 1.512709e+01 1.344581e+01 3.955515e+01 3.068137e+01 2.951483e+01 1.986424e+01 2.160256e+01 3.246187e+01 1.692406e+01 3.791631e+01 2.369068e+01 1.057818e+01 8.803489e-01 2.786410e+00 2.045356e+00 4.122327e+00 2.417348e+00 6.047811e+00 3.975248e+00 2.798332e+00 6.292821e+00 2.504561e+00 3.831885e+00 4.214930e+00 1.620002e+00 1.070732e-01 4.650314e-01 3.260043e-01 7.201597e-01 4.410426e-01 7.166168e-01 4.095439e-01 2.928722e-01 4.871089e-01 3.693702e-01 5.735048e-01 3.772362e-01 1.010630e-01
<GCONST> 1.117617e+02
<MIXTURE> 16 1.856102e-02
<MEAN> 39
 -1.946502e+00 5.604424e+00 5.061477e+00 6.460488e+00 -2.704438e+00 -6.966488e+00 -6.216681e+00 -3.761153e+00 3.847634e+00 -4.547604e+00 -7.313106e+00 -6.265351e+00 8.232124e+00 -1.799921e-01 5.026843e-01 3.809733e-01 -4.621413e-01 -7.311634e-01 -3.665789e-01 7.349854e-01 3.742083e-01 -3.113251e-01 -1.146128e-01 -2.531002e-01 -1.957809e-01 -1.774709e-01 1.210622e-01 -3.414793e-02 -3.196029e-01 -1.240261e-02 1.098928e-01 1.770364e-01 4.180539e-01 9.962792e-02 -1.693429e-01 2.896780e-03 2.822066e-01 3.006813e-01 -4.620440e-02
<VARIANCE> 39
 1.410658e+00 7.223352e+00 1.057583e+01 3.154871e+01 2.084614e+01 1.180911e+01 3.024310e+01 4.094830e+01 5.509559e+00 1.522824e+01 1.524914e+01 1.192217e+01 2.952968e+01 2.743113e-01 3.561347e-01 3.023533e-01 2.048783e-01 3.081582e-01 6.996797e-01 1.745277e+00 1.486216e+00 2.938492e-01 8.321646e-01 1.586600e+00 1.020471e+00 1.306386e-01 5.282732e-02 8.663660e-02 6.519150e-02 1.427066e-01 1.212840e-01 9.684908e-02 4.377472e-01 3.702817e-01 4.230370e-02 3.276133e-01 1.132505e-01 2.320855e-01 2.035944e-02
<GCONST> 6.866404e+01
<MIXTURE> 17 4.274160e-02
<MEAN> 39
 -8.474929e-01 2.168196e+00 3.470783e+00 8.374230e-01 -4.051960e+00 4.049064e+00 3.644522e+00 -3.619212e+00 1.271832e+00 -3.875802e-01 -1.595532e-02 -1.459264e+00 2.838778e+00 -5.401399e-01 -4.814832e+00 -2.144263e+00 -1.579803e+00 -1.689665e+00 3.291184e+00 2.037527e-01 1.191600e+00 5.348548e-01 3.871249e-01 -8.832088e-01 -6.264746e-02 3.057168e+00 -1.882527e-01 -5.374862e-01 -1.309638e-01 -2.089915e-01 1.839287e-01 -1.354848e-01 2.285499e-01 -6.033682e-02 -1.024372e-01 -1.612438e-01 3.188060e-02 1.950793e-01 6.183446e-01
<VARIANCE> 39
 5.182118e+00 1.590655e+01 2.005568e+01 1.444050e+01 2.095536e+01 3.169094e+01 2.674944e+01 3.000456e+01 1.166777e+01 1.749689e+01 1.076991e+01 1.635401e+01 9.455956e+00 9.792665e-01 2.306940e+00 2.593424e+00 3.346466e+00 7.194614e+00 5.691005e+00 5.323836e+00 4.381907e+00 2.676989e+00 4.043315e+00 2.691143e+00 1.947519e+00 5.815268e-01 1.051628e-01 2.478431e-01 4.743302e-01 4.127751e-01 4.352603e-01 5.235438e-01 4.668683e-01 7.265223e-01 2.720404e-01 3.761726e-01 3.277485e-01 5.233889e-01 9.939332e-02
<GCONST> 1.068255e+02
<MIXTURE> 18 3.746852e-02
<MEAN> 39
 9.513236e-01 8.833424e+00 9.762358e+00 8.440263e-01 -3.326086e+00 -4.282784e+00 4.543061e+00 -1.611168e+00 -4.625687e+00 -1.756136e+00 3.224573e+00 1.236567e+00 1.810807e+00 1.675057e-01 6.246037e-01 -1.067259e-02 2.553238e-02 4.794121e-01 -4.609660e-01 -9.295408e-01 -7.033262e-01 2.665918e-01 9.105920e-01 9.701891e-02 3.245069e-01 -6.643055e-01 -2.328426e-01 -1.250385e+00 -7.915349e-01 -2.202141e-01 2.106210e-01 8.979087e-01 -1.504310e-01 -8.602507e-02 5.899826e-01 6.099479e-02 -4.444718e-01 -2.055769e-01 6.005248e-01
<VARIANCE> 39
 1.271642e+00 1.129040e+01 1.181650e+01 2.711009e+01 5.425287e+01 4.245987e+01 1.888937e+01 3.776863e+01 1.681383e+01 1.953506e+01 1.787979e+01 1.207185e+01 9.099705e+00 2.240037e-01 1.918183e+00 5.754449e-01 9.382618e-01 1.646890e+00 3.444852e+00 2.949251e+00 2.787157e+00 2.720038e+00 2.836098e+00 1.271946e+00 1.390756e+00 2.761460e-01 6.363213e-02 1.842529e-01 2.129702e-01 2.597385e-01 8.301947e-01 1.360353e+00 6.985731e-01 7.607080e-01 3.321160e-01 3.944025e-01 2.723133e-01 1.402061e-01 9.085387e-02
<GCONST> 9.596033e+01
<MIXTURE> 19 4.280699e-02
<MEAN> 39
 -3.471147e-01 1.283773e+00 3.526287e+00 3.003901e+00 -3.037488e+00 -1.392499e+00 5.070960e+00 -3.265418e+00 -1.093503e+00 -4.131927e+00 -8.297661e-02 -8.661160e-01 5.244381e+00 1.337965e-02 4.673491e+00 2.918273e+00 4.516018e-01 -5.231633e-01 -1.408810e+00 -2.582048e-01 -2.684363e+00 2.596111e-01 -3.256753e-01 7.895600e-01 1.363766e-02 -2.161941e+00 5.540725e-02 -2.513430e-01 -6.897365e-01 -2.518947e-01 4.694211e-01 -5.084103e-02 -1.613995e-01 2.824089e-01 2.049557e-02 2.221613e-01 -1.124052e-01 9.384689e-02 1.164948e-01
<VARIANCE> 39
 5.736328e+00 1.334007e+01 1.899878e+01 1.245614e+01 1.856698e+01 1.850131e+01 2.069029e+01 2.448569e+01 2.077304e+01 1.761304e+01 1.604174e+01 1.469113e+01 1.342034e+01 5.859331e-01 2.026020e+00 1.329677e+00 2.878927e+00 3.623226e+00 5.324316e+00 3.324354e+00 5.273921e+00 2.285064e+00 1.729860e+00 1.795921e+00 2.095218e+00 4.090283e-01 8.377714e-02 1.753884e-01 2.984126e-01 2.947434e-01 3.067716e-01 2.317654e-01 4.751429e-01 4.207845e-01 3.162917e-01 3.655496e-01 3.598908e-01 2.443723e-01 4.582768e-02
<GCONST> 9.807700e+01
<MIXTURE> 20 3.665436e-02
<MEAN> 39
 -3.262764e+00 -1.215054e+01 -1.880690e+00 -1.051545e+00 2.278070e+00 5.382808e+00 7.265275e+00 -3.122835e+00 -3.681059e+00 2.589107e-01 2.019257e-01 -1.591843e-01 1.284293e+01 -2.127651e-01 5.436870e-01 1.310794e+00 -8.206190e-01 2.807106e-01 3.533254e-01 -6.838322e-01 -1.476271e+00 6.407160e-01 4.669510e-01 2.434622e-01 -2.148191e-01 -2.060176e-01 3.569487e-01 1.160641e+00 2.931965e-01 1.137710e-01 -1.507872e-01 -4.398367e-01 -4.851536e-01 2.615872e-01 2.262802e-01 -2.434566e-01 -1.577151e-02 7.121864e-03 -7.861007e-01
<VARIANCE> 39
 2.934389e+00 7.415203e+00 1.073870e+01 1.340258e+01 8.031979e+00 6.837454e+00 3.155688e+01 1.638302e+01 2.795908e+01 1.142983e+01 8.188651e+00 6.757583e+00 8.458772e+00 4.762218e-01 1.735565e+00 7.330405e-01 7.845686e-01 1.628193e+00 8.811347e-01 1.968810e+00 1.889060e+00 1.402102e+00 1.324480e+00 1.254438e+00 9.730228e-01 9.759715e-01 9.189904e-02 2.055829e-01 1.715267e-01 2.992709e-01 2.129572e-01 2.560769e-01 5.357370e-01 2.109793e-01 5.213386e-01 2.590827e-01 3.237865e-01 1.310426e-01 1.548652e-01
<GCONST> 8.456624e+01
<MIXTURE> 21 3.443711e-02
<MEAN> 39
 -1.284247e+00 1.005432e+01 7.178631e+00 2.911420e+00 5.612306e+00 -6.507241e+00 3.206780e+00 -2.157181e+00 8.146634e-01 -1.528900e-01 -4.680065e-01 1.206951e+00 9.014348e-01 -2.347525e-01 -2.726374e+00 -1.596431e+00 -6.176334e-01 -2.884589e+00 2.941701e+00 1.839815e+00 -8.098344e-01 -2.952865e-01 1.075053e-01 6.866095e-01 -3.409434e-01 1.280313e+00 -1.358363e-01 -1.581521e+00 -8.138586e-01 -3.695372e-01 -1.266151e+00 9.647762e-01 3.302912e-01 -9.314957e-02 2.426314e-02 -1.140337e-01 -1.132951e-01 -3.609782e-01 1.013527e+00
<VARIANCE> 39
 5.293242e+00 1.454091e+01 1.418044e+01 1.831167e+01 2.247121e+01 2.284311e+01 2.040143e+01 1.635013e+01 2.399433e+01 1.345524e+01 2.009492e+01 1.153927e+01 1.035932e+01 1.073264e+00 4.357810e+00 2.513700e+00 3.196547e+00 4.364548e+00 3.649759e+00 1.610346e+00 3.751425e+00 2.717942e+00 9.404858e-01 2.450962e+00 1.635589e+00 1.238803e+00 1.077152e-01 2.214840e-01 2.705568e-01 3.399117e-01 6.586617e-01 7.069581e-01 4.203325e-01 2.986636e-01 4.916928e-01 1.649121e-01 3.125854e-01 2.930968e-01 4.787603e-02
<GCONST> 1.010234e+02
<MIXTURE> 22 3.204986e-02
<MEAN> 39
 -2.600993e+00 6.776427e+00 9.220841e+00 -3.275312e+00 -2.401464e+00 3.360085e+00 4.594913e+00 -1.608788e+00 -1.865321e+00 1.922092e+00 2.920384e+00 1.328989e+00 3.442343e+00 2.117260e-01 5.996968e-01 -1.094538e-01 -3.922934e-01 5.994791e-01 5.743753e-01 -2.910664e-01 9.860004e-02 1.242481e-01 3.913400e-02 -1.228957e-01 1.112727e-01 -4.631682e-01 1.152994e-01 -4.100648e-01 -4.079931e-01 1.125431e-01 1.000039e-01 -7.122856e-02 -5.529044e-02 8.041849e-02 1.795156e-01 -1.007525e-01 -1.976097e-01 -5.002158e-02 1.085026e-01
<VARIANCE> 39
 6.331754e+00 1.179204e+01 6.530562e+00 2.910062e+01 1.984717e+01 1.533755e+01 2.877478e+01 2.552861e+01 3.760464e+01 1.207212e+01 6.352351e+00 1.643618e+01 9.794452e+00 2.107902e-01 4.054118e-01 3.267981e-01 2.311197e-01 1.021516e+00 2.141129e+00 1.754595e+00 2.697892e+00 1.228275e+00 8.295639e-01 1.193052e+00 7.847935e-01 1.439106e-01 2.794037e-02 2.464633e-01 1.953903e-01 1.427878e-01 3.869120e-01 2.515003e-01 5.564574e-01 4.566583e-01 2.648911e-01 1.977342e-01 1.442723e-01 2.320634e-01 1.113821e-01
<GCONST> 8.111390e+01
<MIXTURE> 23 4.473378e-02
<MEAN> 39
 -1.486059e+00 -8.067231e+00 -5.381108e-01 -2.034807e+00 -1.370478e-01 4.559211e+00 5.365182e+00 -1.431347e+00 -2.373408e+00 -7.787336e-01 4.668954e-01 -1.153132e+00 9.440001e+00 2.348257e-01 4.427857e+00 3.101704e+00 2.130913e-01 -9.388438e-01 -1.585276e+00 -1.007636e+00 -1.397475e+00 1.046277e+00 -2.787038e-02 -2.439775e-01 1.776681e-02 -1.819736e+00 1.482628e-01 9.725478e-01 -4.171873e-02 3.623396e-01 -3.282660e-02 -6.959248e-01 -9.047349e-02 1.174760e-01 1.378760e-01 -8.551909e-02 -8.013991e-02 1.784958e-01 -4.316717e-01
<VARIANCE> 39
 6.947476e+00 1.471058e+01 2.156855e+01 1.738587e+01 2.838955e+01 1.665541e+01 3.767545e+01 4.556360e+01 1.900360e+01 1.796162e+01 1.286928e+01 1.101552e+01 7.033710e+00 7.231636e-01 1.477643e+00 2.140620e+00 2.001039e+00 2.560949e+00 3.125575e+00 3.311841e+00 4.510663e+00 2.503894e+00 2.406158e+00 3.697408e+00 1.624070e+00 5.875820e-01 1.368166e-01 2.643556e-01 4.296481e-01 2.397989e-01 3.639924e-01 2.502362e-01 5.357525e-01 7.884838e-01 5.024793e-01 4.765559e-01 2.677246e-01 2.448938e-01 5.190280e-02
<GCONST> 1.019749e+02
<MIXTURE> 24 1.980249e-02
<MEAN> 39
 -1.126149e+00 3.589268e+00 4.970605e+00 3.742143e+00 -3.004710e-01 -9.759040e+00 -2.862951e-01 -7.262641e-01 -3.478214e+00 -4.242891e+00 1.618101e+00 -7.892082e-01 1.879783e+00 2.143562e-01 7.819941e-02 2.586538e-01 -4.816734e-01 -1.297179e-01 2.098063e-01 2.235068e-01 -3.855131e-01 -2.052819e-01 1.958027e-01 -4.367152e-01 -4.698286e-01 -7.137408e-01 6.370606e-02 -3.784117e-01 -2.565643e-01 -2.091166e-01 -1.045064e-01 8.835531e-01 9.625764e-02 -1.789509e-01 3.029652e-01 4.761528e-01 -4.376269e-01 -1.436026e-02 2.249780e-01
<VARIANCE> 39
 1.914013e+00 2.356234e+01 1.400947e+01 2.550951e+01 7.179764e+00 5.762852e+01 1.268002e+01 3.447649e+01 8.791458e+00 1.581024e+01 1.554821e+01 1.029663e+01 1.397233e+01 4.593861e-01 1.220287e+00 8.239342e-01 1.712504e+00 6.596202e-01 2.361970e+00 3.846279e-01 3.016308e+00 1.247604e+00 3.597238e+00 2.000426e+00 1.522004e+00 1.306386e-01 9.102640e-02 4.644373e-01 5.958221e-01 5.844936e-01 2.652501e-01 4.430461e-01 1.744240e-01 5.466126e-01 1.506037e-01 3.510992e-01 2.780585e-01 2.926034e-01 4.240035e-02
<GCONST> 8.973560e+01
<MIXTURE> 25 3.291770e-02
<MEAN> 39
 -1.870821e+00 -2.602280e+00 2.184501e-01 -7.743928e-01 -6.809313e+00 3.639315e+00 9.342653e+00 -5.024702e+00 1.420170e+00 2.166052e-01 -1.620826e-02 -1.439288e+00 8.086170e+00 -7.035969e-01 -5.118686e+00 -2.850223e+00 -1.574265e+00 -2.732208e+00 3.071679e+00 1.687255e+00 -4.109722e-01 6.607382e-01 -1.103149e-01 -7.371706e-01 -7.621269e-01 3.250650e+00 -1.170509e-02 1.990362e-01 2.262786e-01 6.533895e-02 7.827037e-01 -4.633951e-01 -5.683289e-01 1.742359e-01 -2.011452e-01 -2.422708e-01 -2.424741e-01 -5.351071e-02 -1.200162e-01
<VARIANCE> 39
 4.845965e+00 1.170330e+01 1.717628e+01 8.486506e+00 1.566462e+01 1.990508e+01 2.095320e+01 1.141529e+01 1.354250e+01 2.367344e+01 1.470021e+01 1.122317e+01 1.180019e+01 5.689240e-01 2.111899e+00 1.867369e+00 2.166563e+00 5.482427e+00 3.458652e+00 3.242779e+00 4.553937e+00 1.460090e+00 1.488174e+00 1.513952e+00 9.524403e-01 5.223129e-01 1.094657e-01 3.486443e-01 3.734429e-01 3.430986e-01 4.421309e-01 4.242522e-01 6.196489e-01 3.477168e-01 3.968325e-01 2.816463e-01 5.478972e-01 2.449707e-01 1.457480e-01
<GCONST> 9.831502e+01
<MIXTURE> 26 3.409171e-02
<MEAN> 39
 3.195412e-01 7.001177e+00 3.541491e+00 -4.248312e-01 5.539832e-02 -6.119157e-01 3.004790e+00 -9.246607e+00 -1.082335e+00 -3.723130e+00 -2.097962e-01 -1.587492e+00 1.224899e+00 1.316775e-01 5.390153e-01 2.298545e-01 5.150272e-02 3.690007e-02 -1.977756e-01 1.633107e-02 -3.628928e-01 -7.474845e-02 -1.958056e-01 2.939457e-01 -2.363195e-01 -5.009687e-01 -2.571606e-02 -4.199170e-01 -7.454372e-02 2.051924e-01 -1.794069e-01 5.661418e-02 -1.141878e-01 3.500504e-01 -1.075760e-01 5.689729e-02 -2.260611e-02 6.793935e-02 7.702740e-02
<VARIANCE> 39
 3.275105e+00 1.018693e+01 1.232975e+01 2.549436e+00 4.293584e+01 4.346023e+01 3.704821e+01 2.068735e+01 1.885470e+01 3.581080e+00 7.592159e+00 1.751616e+01 9.528777e+00 6.714389e-02 2.839389e-01 4.272093e-01 4.567284e-01 6.236265e-01 1.503341e+00 7.713752e-01 1.843084e+00 7.795748e-01 6.261566e-01 5.075446e-01 4.402958e-01 1.306386e-01 1.924045e-02 2.260914e-01 1.180860e-01 1.272697e-01 2.639391e-01 4.372466e-01 3.110650e-01 3.527683e-01 2.350698e-01 1.853146e-01 1.509965e-01 8.702660e-02 6.354588e-02
<GCONST> 7.037920e+01
<MIXTURE> 27 2.617680e-02
<MEAN> 39
